FANN_FLO_2.1
num_layers=4
learning_rate=0.700000
connection_rate=1.000000
network_type=0
learning_momentum=0.000000
training_algorithm=2
train_error_function=1
train_stop_function=0
cascade_output_change_fraction=0.010000
quickprop_decay=-0.000100
quickprop_mu=1.750000
rprop_increase_factor=1.200000
rprop_decrease_factor=0.500000
rprop_delta_min=0.000000
rprop_delta_max=50.000000
rprop_delta_zero=0.100000
cascade_output_stagnation_epochs=12
cascade_candidate_change_fraction=0.010000
cascade_candidate_stagnation_epochs=12
cascade_max_out_epochs=150
cascade_min_out_epochs=50
cascade_max_cand_epochs=150
cascade_min_cand_epochs=50
cascade_num_candidate_groups=2
bit_fail_limit=3.49999994039535522461e-01
cascade_candidate_limit=1.00000000000000000000e+03
cascade_weight_multiplier=4.00000005960464477539e-01
cascade_activation_functions_count=10
cascade_activation_functions=3 5 7 8 10 11 14 15 16 17 
cascade_activation_steepnesses_count=4
cascade_activation_steepnesses=2.50000000000000000000e-01 5.00000000000000000000e-01 7.50000000000000000000e-01 1.00000000000000000000e+00 
layer_sizes=12 5 3 2 
scale_included=0
neurons (num_inputs, activation_function, activation_steepness)=(0, 0, 0.00000000000000000000e+00) (0, 0, 0.00000000000000000000e+00) (0, 0, 0.00000000000000000000e+00) (0, 0, 0.00000000000000000000e+00) (0, 0, 0.00000000000000000000e+00) (0, 0, 0.00000000000000000000e+00) (0, 0, 0.00000000000000000000e+00) (0, 0, 0.00000000000000000000e+00) (0, 0, 0.00000000000000000000e+00) (0, 0, 0.00000000000000000000e+00) (0, 0, 0.00000000000000000000e+00) (0, 0, 0.00000000000000000000e+00) (12, 4, 5.00000000000000000000e-01) (12, 4, 5.00000000000000000000e-01) (12, 4, 5.00000000000000000000e-01) (12, 4, 5.00000000000000000000e-01) (0, 0, 0.00000000000000000000e+00) (5, 4, 5.00000000000000000000e-01) (5, 4, 5.00000000000000000000e-01) (0, 0, 0.00000000000000000000e+00) (3, 4, 5.00000000000000000000e-01) (0, 0, 0.00000000000000000000e+00) 
connections (connected_to_neuron, weight)=(0, -8.50830078125000000000e-01) (1, 8.21993827819824218750e-01) (2, 3.08810621500015258789e-01) (3, 1.96937060356140136719e+00) (4, 1.48393189907073974609e+00) (5, 2.91091179847717285156e+00) (6, 3.11822628974914550781e+00) (7, 6.75616681575775146484e-01) (8, -2.08543658256530761719e-01) (9, -7.50847876071929931641e-01) (10, -7.04773998260498046875e+00) (11, 6.66287755966186523438e+00) (0, 1.39628481119871139526e-02) (1, 3.70107144117355346680e-02) (2, 1.14932067692279815674e-01) (3, 2.50712335109710693359e-01) (4, -4.34840559959411621094e-01) (5, -3.47488015890121459961e-01) (6, 2.68592625856399536133e-01) (7, 1.10863462090492248535e-01) (8, 4.89931255578994750977e-02) (9, 3.64623405039310455322e-02) (10, -3.15898819826543331146e-03) (11, -1.18551599979400634766e+00) (0, 3.50283145904541015625e+00) (1, 2.47787594795227050781e+00) (2, 1.56299436092376708984e+00) (3, -1.26441884040832519531e+00) (4, 1.10148346424102783203e+00) (5, 1.56290352344512939453e+00) (6, -1.89210712909698486328e+00) (7, 1.90936851501464843750e+00) (8, 2.13976526260375976562e+00) (9, 3.59033679962158203125e+00) (10, -1.10165824890136718750e+01) (11, -2.75883979797363281250e+01) (0, -4.18383687734603881836e-01) (1, 7.96004533767700195312e-01) (2, 1.17725074291229248047e+00) (3, 4.40285968780517578125e+00) (4, 8.00473034381866455078e-01) (5, 1.52136576175689697266e+00) (6, 2.63559269905090332031e+00) (7, 1.03822243213653564453e+00) (8, 7.74812698364257812500e-02) (9, -1.46300017833709716797e+00) (10, -7.76678466796875000000e+00) (11, 1.09511756896972656250e+01) (12, -9.67510604858398437500e+00) (13, 1.12552871704101562500e+01) (14, 1.52599973678588867188e+01) (15, -1.05621576309204101562e+01) (16, -1.09640419483184814453e+00) (12, -5.41906213760375976562e+00) (13, 1.53236732482910156250e+01) (14, 2.12391376495361328125e+00) (15, -1.91404414176940917969e+00) (16, -1.00733160972595214844e+00) (17, -3.53785347938537597656e+00) (18, -4.68317127227783203125e+00) (19, 6.61475777626037597656e-01) 
