FANN_FLO_2.1
num_layers=5
learning_rate=0.700000
connection_rate=1.000000
network_type=0
learning_momentum=0.000000
training_algorithm=2
train_error_function=1
train_stop_function=0
cascade_output_change_fraction=0.010000
quickprop_decay=-0.000100
quickprop_mu=1.750000
rprop_increase_factor=1.200000
rprop_decrease_factor=0.500000
rprop_delta_min=0.000000
rprop_delta_max=50.000000
rprop_delta_zero=0.100000
cascade_output_stagnation_epochs=12
cascade_candidate_change_fraction=0.010000
cascade_candidate_stagnation_epochs=12
cascade_max_out_epochs=150
cascade_min_out_epochs=50
cascade_max_cand_epochs=150
cascade_min_cand_epochs=50
cascade_num_candidate_groups=2
bit_fail_limit=3.49999994039535522461e-01
cascade_candidate_limit=1.00000000000000000000e+03
cascade_weight_multiplier=4.00000005960464477539e-01
cascade_activation_functions_count=10
cascade_activation_functions=3 5 7 8 10 11 14 15 16 17 
cascade_activation_steepnesses_count=4
cascade_activation_steepnesses=2.50000000000000000000e-01 5.00000000000000000000e-01 7.50000000000000000000e-01 1.00000000000000000000e+00 
layer_sizes=12 6 4 3 2 
scale_included=0
neurons (num_inputs, activation_function, activation_steepness)=(0, 0, 0.00000000000000000000e+00) (0, 0, 0.00000000000000000000e+00) (0, 0, 0.00000000000000000000e+00) (0, 0, 0.00000000000000000000e+00) (0, 0, 0.00000000000000000000e+00) (0, 0, 0.00000000000000000000e+00) (0, 0, 0.00000000000000000000e+00) (0, 0, 0.00000000000000000000e+00) (0, 0, 0.00000000000000000000e+00) (0, 0, 0.00000000000000000000e+00) (0, 0, 0.00000000000000000000e+00) (0, 0, 0.00000000000000000000e+00) (12, 4, 5.00000000000000000000e-01) (12, 4, 5.00000000000000000000e-01) (12, 4, 5.00000000000000000000e-01) (12, 4, 5.00000000000000000000e-01) (12, 4, 5.00000000000000000000e-01) (0, 0, 0.00000000000000000000e+00) (6, 4, 5.00000000000000000000e-01) (6, 4, 5.00000000000000000000e-01) (6, 4, 5.00000000000000000000e-01) (0, 0, 0.00000000000000000000e+00) (4, 4, 5.00000000000000000000e-01) (4, 4, 5.00000000000000000000e-01) (0, 0, 0.00000000000000000000e+00) (3, 4, 5.00000000000000000000e-01) (0, 0, 0.00000000000000000000e+00) 
connections (connected_to_neuron, weight)=(0, 1.50000000000000000000e+03) (1, 1.50000000000000000000e+03) (2, 1.50000000000000000000e+03) (3, -1.50000000000000000000e+03) (4, 1.50000000000000000000e+03) (5, -1.50000000000000000000e+03) (6, 1.50000000000000000000e+03) (7, 1.13351538085937500000e+03) (8, 1.50000000000000000000e+03) (9, 1.50000000000000000000e+03) (10, 1.50000000000000000000e+03) (11, 1.49998669433593750000e+03) (0, 1.50000000000000000000e+03) (1, 1.50000000000000000000e+03) (2, 1.50000000000000000000e+03) (3, -1.50000000000000000000e+03) (4, 1.50000000000000000000e+03) (5, -1.50000000000000000000e+03) (6, 1.50000000000000000000e+03) (7, -1.50000000000000000000e+03) (8, 1.50000000000000000000e+03) (9, 1.50000000000000000000e+03) (10, 1.50000000000000000000e+03) (11, 1.40324691772460937500e+02) (0, 1.50000000000000000000e+03) (1, 1.50000000000000000000e+03) (2, 1.50000000000000000000e+03) (3, -1.50000000000000000000e+03) (4, 1.50000000000000000000e+03) (5, -1.50000000000000000000e+03) (6, 1.50000000000000000000e+03) (7, -1.50000000000000000000e+03) (8, 1.50000000000000000000e+03) (9, 1.50000000000000000000e+03) (10, 1.50000000000000000000e+03) (11, 1.39788049316406250000e+03) (0, 1.50000000000000000000e+03) (1, 1.50000000000000000000e+03) (2, 1.50000000000000000000e+03) (3, -1.50000000000000000000e+03) (4, 1.50000000000000000000e+03) (5, -1.50000000000000000000e+03) (6, 1.50000000000000000000e+03) (7, -1.50000000000000000000e+03) (8, 1.50000000000000000000e+03) (9, 1.50000000000000000000e+03) (10, 1.50000000000000000000e+03) (11, 3.44497795104980468750e+01) (0, 1.19265797547996044159e-03) (1, 1.38136565685272216797e-01) (2, -4.24876902252435684204e-03) (3, 2.39228233695030212402e-01) (4, -2.55874663591384887695e-01) (5, -1.52196690440177917480e-01) (6, -1.48670196533203125000e-01) (7, 2.28751093149185180664e-01) (8, 1.40497758984565734863e-02) (9, 1.58026099205017089844e-01) (10, -1.21754361316561698914e-03) (11, 3.25368554331362247467e-03) (12, 5.66908020019531250000e+02) (13, -1.74577163696289062500e+02) (14, -1.42655973434448242188e+01) (15, 1.86611995697021484375e+01) (16, -1.46123718261718750000e+03) (17, -4.04422283172607421875e+00) (12, 1.49469409179687500000e+03) (13, 1.07400390625000000000e+03) (14, 1.49157373046875000000e+03) (15, 1.49157275390625000000e+03) (16, 1.50000000000000000000e+03) (17, 7.88898498535156250000e+02) (12, 3.45788513183593750000e+02) (13, 1.15900451660156250000e+03) (14, -2.33131011962890625000e+02) (15, 1.48846997070312500000e+03) (16, 1.50000000000000000000e+03) (17, -4.36199045181274414062e+00) (18, -1.41673828125000000000e+03) (19, 1.49816308593750000000e+03) (20, 1.15278747558593750000e+03) (21, -1.43353900909423828125e+01) (18, -8.97015190124511718750e+00) (19, 1.15022468566894531250e+00) (20, 9.05272388458251953125e+00) (21, -2.99433517456054687500e+00) (22, -4.89022731781005859375e-01) (23, -3.37798786163330078125e+00) (24, 2.66206097602844238281e+00) 
