FANN_FLO_2.1
num_layers=5
learning_rate=0.700000
connection_rate=1.000000
network_type=0
learning_momentum=0.000000
training_algorithm=2
train_error_function=1
train_stop_function=0
cascade_output_change_fraction=0.010000
quickprop_decay=-0.000100
quickprop_mu=1.750000
rprop_increase_factor=1.200000
rprop_decrease_factor=0.500000
rprop_delta_min=0.000000
rprop_delta_max=50.000000
rprop_delta_zero=0.100000
cascade_output_stagnation_epochs=12
cascade_candidate_change_fraction=0.010000
cascade_candidate_stagnation_epochs=12
cascade_max_out_epochs=150
cascade_min_out_epochs=50
cascade_max_cand_epochs=150
cascade_min_cand_epochs=50
cascade_num_candidate_groups=2
bit_fail_limit=3.49999994039535522461e-01
cascade_candidate_limit=1.00000000000000000000e+03
cascade_weight_multiplier=4.00000005960464477539e-01
cascade_activation_functions_count=10
cascade_activation_functions=3 5 7 8 10 11 14 15 16 17 
cascade_activation_steepnesses_count=4
cascade_activation_steepnesses=2.50000000000000000000e-01 5.00000000000000000000e-01 7.50000000000000000000e-01 1.00000000000000000000e+00 
layer_sizes=81 10 6 3 2 
scale_included=0
neurons (num_inputs, activation_function, activation_steepness)=(0, 0, 0.00000000000000000000e+00) (0, 0, 0.00000000000000000000e+00) (0, 0, 0.00000000000000000000e+00) (0, 0, 0.00000000000000000000e+00) (0, 0, 0.00000000000000000000e+00) (0, 0, 0.00000000000000000000e+00) (0, 0, 0.00000000000000000000e+00) (0, 0, 0.00000000000000000000e+00) (0, 0, 0.00000000000000000000e+00) (0, 0, 0.00000000000000000000e+00) (0, 0, 0.00000000000000000000e+00) (0, 0, 0.00000000000000000000e+00) (0, 0, 0.00000000000000000000e+00) (0, 0, 0.00000000000000000000e+00) (0, 0, 0.00000000000000000000e+00) (0, 0, 0.00000000000000000000e+00) (0, 0, 0.00000000000000000000e+00) (0, 0, 0.00000000000000000000e+00) (0, 0, 0.00000000000000000000e+00) (0, 0, 0.00000000000000000000e+00) (0, 0, 0.00000000000000000000e+00) (0, 0, 0.00000000000000000000e+00) (0, 0, 0.00000000000000000000e+00) (0, 0, 0.00000000000000000000e+00) (0, 0, 0.00000000000000000000e+00) (0, 0, 0.00000000000000000000e+00) (0, 0, 0.00000000000000000000e+00) (0, 0, 0.00000000000000000000e+00) (0, 0, 0.00000000000000000000e+00) (0, 0, 0.00000000000000000000e+00) (0, 0, 0.00000000000000000000e+00) (0, 0, 0.00000000000000000000e+00) (0, 0, 0.00000000000000000000e+00) (0, 0, 0.00000000000000000000e+00) (0, 0, 0.00000000000000000000e+00) (0, 0, 0.00000000000000000000e+00) (0, 0, 0.00000000000000000000e+00) (0, 0, 0.00000000000000000000e+00) (0, 0, 0.00000000000000000000e+00) (0, 0, 0.00000000000000000000e+00) (0, 0, 0.00000000000000000000e+00) (0, 0, 0.00000000000000000000e+00) (0, 0, 0.00000000000000000000e+00) (0, 0, 0.00000000000000000000e+00) (0, 0, 0.00000000000000000000e+00) (0, 0, 0.00000000000000000000e+00) (0, 0, 0.00000000000000000000e+00) (0, 0, 0.00000000000000000000e+00) (0, 0, 0.00000000000000000000e+00) (0, 0, 0.00000000000000000000e+00) (0, 0, 0.00000000000000000000e+00) (0, 0, 0.00000000000000000000e+00) (0, 0, 0.00000000000000000000e+00) (0, 0, 0.00000000000000000000e+00) (0, 0, 0.00000000000000000000e+00) (0, 0, 0.00000000000000000000e+00) (0, 0, 0.00000000000000000000e+00) (0, 0, 0.00000000000000000000e+00) (0, 0, 0.00000000000000000000e+00) (0, 0, 0.00000000000000000000e+00) (0, 0, 0.00000000000000000000e+00) (0, 0, 0.00000000000000000000e+00) (0, 0, 0.00000000000000000000e+00) (0, 0, 0.00000000000000000000e+00) (0, 0, 0.00000000000000000000e+00) (0, 0, 0.00000000000000000000e+00) (0, 0, 0.00000000000000000000e+00) (0, 0, 0.00000000000000000000e+00) (0, 0, 0.00000000000000000000e+00) (0, 0, 0.00000000000000000000e+00) (0, 0, 0.00000000000000000000e+00) (0, 0, 0.00000000000000000000e+00) (0, 0, 0.00000000000000000000e+00) (0, 0, 0.00000000000000000000e+00) (0, 0, 0.00000000000000000000e+00) (0, 0, 0.00000000000000000000e+00) (0, 0, 0.00000000000000000000e+00) (0, 0, 0.00000000000000000000e+00) (0, 0, 0.00000000000000000000e+00) (0, 0, 0.00000000000000000000e+00) (0, 0, 0.00000000000000000000e+00) (81, 4, 5.00000000000000000000e-01) (81, 4, 5.00000000000000000000e-01) (81, 4, 5.00000000000000000000e-01) (81, 4, 5.00000000000000000000e-01) (81, 4, 5.00000000000000000000e-01) (81, 4, 5.00000000000000000000e-01) (81, 4, 5.00000000000000000000e-01) (81, 4, 5.00000000000000000000e-01) (81, 4, 5.00000000000000000000e-01) (0, 0, 0.00000000000000000000e+00) (10, 4, 5.00000000000000000000e-01) (10, 4, 5.00000000000000000000e-01) (10, 4, 5.00000000000000000000e-01) (10, 4, 5.00000000000000000000e-01) (10, 4, 5.00000000000000000000e-01) (0, 0, 0.00000000000000000000e+00) (6, 4, 5.00000000000000000000e-01) (6, 4, 5.00000000000000000000e-01) (0, 0, 0.00000000000000000000e+00) (3, 4, 5.00000000000000000000e-01) (0, 0, 0.00000000000000000000e+00) 
connections (connected_to_neuron, weight)=(0, -5.69478124380111694336e-02) (1, 7.81339034438133239746e-02) (2, -3.38637828826904296875e-03) (3, 8.51330384612083435059e-02) (4, 3.09835746884346008301e-02) (5, -5.92689327895641326904e-02) (6, 6.70422390103340148926e-02) (7, -2.12613940238952636719e-02) (8, 5.97950890660285949707e-02) (9, -2.40182131528854370117e-02) (10, -7.40702971816062927246e-02) (11, -9.95205342769622802734e-02) (12, -4.15413267910480499268e-02) (13, 1.49429887533187866211e-02) (14, -5.30963353812694549561e-02) (15, 9.85561311244964599609e-03) (16, 4.32841852307319641113e-02) (17, 7.72068127989768981934e-02) (18, 1.48994103074073791504e-02) (19, 1.42741054296493530273e-02) (20, -9.51075851917266845703e-02) (21, -7.31686279177665710449e-02) (22, 5.48974052071571350098e-02) (23, 6.06983527541160583496e-02) (24, -4.27417419850826263428e-02) (25, 3.95507290959358215332e-02) (26, -7.08605572581291198730e-02) (27, 4.66284826397895812988e-02) (28, 8.48321840167045593262e-02) (29, -2.56163924932479858398e-02) (30, 6.51949122548103332520e-02) (31, -6.92962706089019775391e-02) (32, -6.24668411910533905029e-02) (33, -8.02089944481849670410e-02) (34, -7.25945830345153808594e-02) (35, -9.71083268523216247559e-02) (36, -9.95867773890495300293e-02) (37, 4.50997427105903625488e-02) (38, -8.80000740289688110352e-03) (39, 9.83420386910438537598e-02) (40, 3.45785245299339294434e-02) (41, -3.87152619659900665283e-02) (42, -8.73463377356529235840e-02) (43, -2.98872664570808410645e-02) (44, 8.47006812691688537598e-02) (45, -3.56312468647956848145e-02) (46, -5.43436370790004730225e-02) (47, 4.64591011404991149902e-02) (48, 3.80905345082283020020e-02) (49, -1.23697891831398010254e-02) (50, -9.90054160356521606445e-02) (51, 1.59382596611976623535e-02) (52, 7.43451192975044250488e-02) (53, -8.15582573413848876953e-02) (54, 5.04284873604774475098e-02) (55, -4.84007969498634338379e-02) (56, -7.22158476710319519043e-02) (57, 6.82703331112861633301e-02) (58, 1.93396583199501037598e-02) (59, 4.15318682789802551270e-02) (60, 2.62865796685218811035e-02) (61, -1.39661133289337158203e-03) (62, -7.27848559617996215820e-02) (63, -9.50504615902900695801e-02) (64, 8.69547054171562194824e-02) (65, 4.76712360978126525879e-02) (66, 1.04146003723144531250e-02) (67, 3.81423607468605041504e-02) (68, 5.87019845843315124512e-02) (69, 4.19980287551879882812e-03) (70, -1.39435604214668273926e-02) (71, 5.05681559443473815918e-02) (72, 9.88588258624076843262e-02) (73, -7.97168686985969543457e-02) (74, -1.43397599458694458008e-03) (75, 9.92257073521614074707e-02) (76, 8.65213796496391296387e-02) (77, -3.52192968130111694336e-02) (78, 6.93556740880012512207e-02) (79, 6.07311949133872985840e-02) (80, -9.07604396343231201172e-02) (0, -1.07119902968406677246e-02) (1, -3.64546552300453186035e-02) (2, -9.34071764349937438965e-02) (3, -9.43407267332077026367e-02) (4, 1.54606252908706665039e-02) (5, 4.67051342129707336426e-02) (6, -2.69991010427474975586e-02) (7, 2.61625722050666809082e-02) (8, -8.57669264078140258789e-02) (9, -8.46725478768348693848e-02) (10, -9.14525687694549560547e-02) (11, -4.32700216770172119141e-02) (12, -3.92601452767848968506e-02) (13, -4.52189259231090545654e-02) (14, 5.45765459537506103516e-03) (15, -7.32015222311019897461e-02) (16, -9.79588851332664489746e-02) (17, 5.03636896610260009766e-03) (18, 4.61773350834846496582e-02) (19, -9.74983721971511840820e-02) (20, -5.50648011267185211182e-02) (21, -7.40855783224105834961e-02) (22, 4.37338575720787048340e-02) (23, 3.50110754370689392090e-02) (24, 3.12273278832435607910e-02) (25, 3.75958904623985290527e-02) (26, 7.40788653492927551270e-02) (27, 4.33848574757575988770e-02) (28, -3.08370292186737060547e-02) (29, -7.79104083776473999023e-02) (30, -4.01786454021930694580e-02) (31, -8.24975073337554931641e-02) (32, 6.44788965582847595215e-02) (33, 9.69284400343894958496e-02) (34, 7.63260796666145324707e-02) (35, 1.22579783201217651367e-02) (36, 1.99207663536071777344e-02) (37, 8.35704803466796875000e-03) (38, 5.68539574742317199707e-02) (39, -5.57061173021793365479e-02) (40, -5.27225434780120849609e-02) (41, 9.22246649861335754395e-02) (42, 1.98144465684890747070e-02) (43, 2.13496312499046325684e-02) (44, 2.32267603278160095215e-02) (45, -2.78914272785186767578e-02) (46, 2.88151577115058898926e-02) (47, 9.64787676930427551270e-02) (48, -8.15345495939254760742e-02) (49, 4.88579943776130676270e-02) (50, -4.37593348324298858643e-02) (51, -6.31103515625000000000e-02) (52, -9.56236422061920166016e-02) (53, 5.35221770405769348145e-02) (54, -5.28350211679935455322e-02) (55, 1.83559954166412353516e-03) (56, 5.09285554289817810059e-02) (57, -4.37786839902400970459e-02) (58, 1.17118358612060546875e-02) (59, 4.08168062567710876465e-02) (60, 7.99028575420379638672e-03) (61, 9.28337052464485168457e-02) (62, 5.58883622288703918457e-02) (63, -8.43041911721229553223e-02) (64, 9.94622185826301574707e-02) (65, 6.15906789898872375488e-02) (66, -4.55493032932281494141e-02) (67, 5.28568550944328308105e-02) (68, -3.49839329719543457031e-02) (69, 2.50453129410743713379e-02) (70, -6.34698122739791870117e-02) (71, 6.28419145941734313965e-02) (72, -1.58837884664535522461e-02) (73, 4.11178097128868103027e-02) (74, 6.70978203415870666504e-02) (75, -8.69228243827819824219e-02) (76, 8.81720855832099914551e-02) (77, -9.15964767336845397949e-02) (78, -6.19108304381370544434e-02) (79, 6.46903440356254577637e-02) (80, 5.05837574601173400879e-02) (0, -3.88216264545917510986e-02) (1, -7.50565603375434875488e-02) (2, -7.56078362464904785156e-02) (3, 5.91574385762214660645e-02) (4, 5.91246113181114196777e-02) (5, -9.25874635577201843262e-02) (6, 8.25751796364784240723e-02) (7, 4.09923568367958068848e-02) (8, -4.14074547588825225830e-02) (9, 6.49584159255027770996e-02) (10, -4.39225994050502777100e-02) (11, -7.09801912307739257812e-03) (12, -9.64489355683326721191e-02) (13, -1.72819867730140686035e-02) (14, -5.82884363830089569092e-02) (15, -5.37390075623989105225e-02) (16, 8.52843374013900756836e-03) (17, -6.25804066658020019531e-02) (18, 1.10600739717483520508e-02) (19, 8.65592435002326965332e-02) (20, 1.13026797771453857422e-03) (21, -3.55087220668792724609e-03) (22, -7.94896408915519714355e-02) (23, 1.76260471343994140625e-02) (24, 4.09344062209129333496e-02) (25, -1.53490155935287475586e-02) (26, 2.90658548474311828613e-02) (27, -9.03957113623619079590e-02) (28, -8.06550532579421997070e-02) (29, 3.05654481053352355957e-02) (30, -8.66817235946655273438e-02) (31, -5.96907846629619598389e-02) (32, -2.30190828442573547363e-02) (33, -8.16809311509132385254e-02) (34, -1.14457160234451293945e-02) (35, 3.19297537207603454590e-02) (36, 4.33201715350151062012e-02) (37, 8.19848105311393737793e-02) (38, -8.14445093274116516113e-02) (39, -3.78164649009704589844e-02) (40, 1.86467170715332031250e-02) (41, -4.55794483423233032227e-03) (42, -5.35459816455841064453e-03) (43, 5.18956035375595092773e-03) (44, 2.09354311227798461914e-02) (45, 6.17339089512825012207e-02) (46, -3.81424687802791595459e-02) (47, -6.04347400367259979248e-02) (48, 7.33339115977287292480e-02) (49, -7.70747736096382141113e-02) (50, 4.29264456033706665039e-03) (51, -5.35251908004283905029e-02) (52, 2.15301662683486938477e-03) (53, -1.42440572381019592285e-02) (54, 1.25981867313385009766e-04) (55, -8.27456265687942504883e-02) (56, 9.42121222615242004395e-02) (57, 2.32843756675720214844e-02) (58, -5.95159754157066345215e-02) (59, -8.49671885371208190918e-02) (60, -4.35532815754413604736e-02) (61, 4.86597418785095214844e-05) (62, 1.77843719720840454102e-02) (63, -9.81329157948493957520e-02) (64, 8.01609531044960021973e-02) (65, 6.50698021054267883301e-02) (66, 2.81277075409889221191e-02) (67, -5.75573109090328216553e-02) (68, 3.42884138226509094238e-02) (69, 8.52438285946846008301e-02) (70, 9.28126350045204162598e-02) (71, -9.80795398354530334473e-02) (72, -2.27712169289588928223e-02) (73, 8.41921195387840270996e-02) (74, 1.68840885162353515625e-02) (75, -2.90560871362686157227e-02) (76, 5.43612763285636901855e-02) (77, 4.99317720532417297363e-02) (78, 3.17667424678802490234e-03) (79, -9.59442555904388427734e-03) (80, -5.35785369575023651123e-02) (0, -9.44436714053153991699e-02) (1, 8.52084830403327941895e-02) (2, 9.88099947571754455566e-02) (3, 9.94910821318626403809e-02) (4, -5.32730482518672943115e-02) (5, 3.99394407868385314941e-02) (6, 6.22058734297752380371e-02) (7, 9.42036584019660949707e-02) (8, 8.08976814150810241699e-02) (9, 4.71967831254005432129e-02) (10, 3.62850502133369445801e-02) (11, 4.28666099905967712402e-02) (12, 5.91449812054634094238e-02) (13, 4.95156720280647277832e-02) (14, 9.75537300109863281250e-03) (15, -4.14059832692146301270e-02) (16, 8.96991416811943054199e-02) (17, -2.66667157411575317383e-02) (18, 1.24465003609657287598e-02) (19, -1.16519033908843994141e-02) (20, -3.34910750389099121094e-02) (21, -8.45086202025413513184e-02) (22, 6.37017711997032165527e-02) (23, 3.56714054942131042480e-02) (24, -7.07822814583778381348e-02) (25, -3.77572849392890930176e-02) (26, 1.33266001939773559570e-02) (27, -1.98343545198440551758e-02) (28, 4.41012606024742126465e-02) (29, 9.86615568399429321289e-03) (30, 2.05467492341995239258e-02) (31, -7.08144158124923706055e-02) (32, 2.20839232206344604492e-02) (33, -3.54279130697250366211e-02) (34, -3.68405431509017944336e-02) (35, 2.10261940956115722656e-02) (36, -1.27721056342124938965e-02) (37, -6.07834085822105407715e-02) (38, 1.32726207375526428223e-02) (39, 7.28280618786811828613e-02) (40, 2.10933461785316467285e-02) (41, -8.41940045356750488281e-02) (42, -4.86575849354267120361e-02) (43, 1.19437798857688903809e-02) (44, -6.08483217656612396240e-02) (45, -7.77373462915420532227e-02) (46, 6.83928802609443664551e-02) (47, 7.90897682309150695801e-02) (48, 6.18456229567527770996e-02) (49, 3.94661352038383483887e-02) (50, -9.27568897604942321777e-02) (51, 3.49710658192634582520e-02) (52, -4.12252843379974365234e-02) (53, -7.33142793178558349609e-02) (54, 6.94841146469116210938e-03) (55, -1.80601924657821655273e-02) (56, 6.22503831982612609863e-02) (57, 4.22574356198310852051e-02) (58, 2.05337405204772949219e-02) (59, -8.93814340233802795410e-02) (60, -3.37255448102951049805e-02) (61, -2.52608507871627807617e-02) (62, 4.09252271056175231934e-02) (63, 3.03869917988777160645e-02) (64, -8.59686955809593200684e-02) (65, -7.57804289460182189941e-02) (66, -4.16753664612770080566e-02) (67, -3.78977470099925994873e-02) (68, 5.25884106755256652832e-02) (69, 5.32879307866096496582e-02) (70, 1.03196725249290466309e-02) (71, 4.27229031920433044434e-02) (72, 4.38209846615791320801e-02) (73, 9.91807654500007629395e-02) (74, -6.89063966274261474609e-02) (75, 9.02406498789787292480e-02) (76, 7.45993182063102722168e-02) (77, -9.41250473260879516602e-03) (78, 4.07592952251434326172e-03) (79, -9.58376154303550720215e-02) (80, 5.72366192936897277832e-02) (0, -2.40193381905555725098e-02) (1, -9.30398553609848022461e-02) (2, 7.91885778307914733887e-02) (3, -7.77212604880332946777e-02) (4, -6.12467639148235321045e-02) (5, 2.56736353039741516113e-02) (6, 9.65797975659370422363e-02) (7, 1.65434032678604125977e-02) (8, 4.49060723185539245605e-02) (9, -6.37290626764297485352e-02) (10, -9.43670794367790222168e-02) (11, -2.74430066347122192383e-02) (12, -3.45712453126907348633e-02) (13, -3.89085002243518829346e-02) (14, 6.48168548941612243652e-02) (15, -2.30527669191360473633e-02) (16, -4.77778725326061248779e-02) (17, -2.73768603801727294922e-03) (18, -1.22352614998817443848e-02) (19, -3.80221270024776458740e-02) (20, -3.78316938877105712891e-02) (21, -3.73099893331527709961e-02) (22, -6.89964890480041503906e-02) (23, -2.40537971258163452148e-02) (24, -7.21849203109741210938e-02) (25, -1.19037926197052001953e-02) (26, -6.70794397592544555664e-02) (27, -4.08899039030075073242e-03) (28, 7.63189122080802917480e-02) (29, 9.19588580727577209473e-02) (30, -4.74207811057567596436e-02) (31, -1.05041265487670898438e-03) (32, -5.43238483369350433350e-02) (33, -2.09123790264129638672e-02) (34, -7.43755921721458435059e-02) (35, -3.05711776018142700195e-02) (36, -9.74854081869125366211e-03) (37, -4.37044873833656311035e-02) (38, 5.87232485413551330566e-02) (39, -3.83245237171649932861e-02) (40, 7.97601118683815002441e-02) (41, -7.18563348054885864258e-02) (42, -8.94454643130302429199e-02) (43, 9.00657251477241516113e-02) (44, -6.54310882091522216797e-02) (45, 9.97069999575614929199e-02) (46, -2.44438871741294860840e-02) (47, -2.84455791115760803223e-02) (48, -8.48679170012474060059e-02) (49, 2.49222069978713989258e-02) (50, 6.75668641924858093262e-02) (51, -3.75603139400482177734e-03) (52, 7.23513737320899963379e-02) (53, 9.54280048608779907227e-03) (54, -1.42499879002571105957e-02) (55, -9.95021387934684753418e-02) (56, 6.75188675522804260254e-02) (57, -1.04183480143547058105e-02) (58, 9.88350138068199157715e-02) (59, -7.98947811126708984375e-02) (60, 8.38269293308258056641e-03) (61, 8.78912284970283508301e-02) (62, -1.20241343975067138672e-02) (63, -8.96026492118835449219e-02) (64, 4.82403412461280822754e-02) (65, -2.45850831270217895508e-02) (66, -1.46335363388061523438e-03) (67, 5.46476989984512329102e-03) (68, 4.63900938630104064941e-02) (69, 7.83666148781776428223e-02) (70, -9.22773033380508422852e-02) (71, 9.53832045197486877441e-02) (72, -9.44503694772720336914e-02) (73, -2.73221954703330993652e-02) (74, -4.12304699420928955078e-03) (75, -9.60735604166984558105e-02) (76, 9.16701033711433410645e-02) (77, 9.94930341839790344238e-02) (78, -2.05588191747665405273e-02) (79, 6.78938850760459899902e-02) (80, 9.24526527523994445801e-02) (0, 5.17550930380821228027e-02) (1, 4.79500517249107360840e-02) (2, 9.65956375002861022949e-02) (3, 8.27808305621147155762e-02) (4, 9.73831191658973693848e-02) (5, -8.18786323070526123047e-02) (6, 6.58207014203071594238e-02) (7, 4.84392866492271423340e-02) (8, -8.09707343578338623047e-02) (9, -7.51541182398796081543e-02) (10, 8.47552940249443054199e-02) (11, 8.20809826254844665527e-02) (12, -6.48437589406967163086e-02) (13, -2.90656313300132751465e-02) (14, 9.39097478985786437988e-02) (15, -5.88780753314495086670e-02) (16, 3.62242236733436584473e-02) (17, 2.05909460783004760742e-02) (18, 7.21803829073905944824e-02) (19, -6.43062591552734375000e-02) (20, 4.71361726522445678711e-03) (21, 2.17035859823226928711e-02) (22, -2.78435274958610534668e-02) (23, 3.37901189923286437988e-02) (24, -8.95520076155662536621e-02) (25, 9.93955656886100769043e-02) (26, -5.87431304156780242920e-02) (27, -9.57690924406051635742e-02) (28, 8.83207470178604125977e-03) (29, 4.07414063811302185059e-02) (30, -5.91161102056503295898e-02) (31, 3.55501845479011535645e-02) (32, 9.18932780623435974121e-02) (33, 5.03071025013923645020e-02) (34, -8.83627310395240783691e-02) (35, 8.76139476895332336426e-02) (36, -7.24125802516937255859e-02) (37, -3.83065119385719299316e-02) (38, -1.75409764051437377930e-02) (39, -1.11318826675415039062e-02) (40, -9.35199931263923645020e-02) (41, 9.48809087276458740234e-03) (42, 6.64568617939949035645e-02) (43, -5.96352256834506988525e-02) (44, -8.92314836382865905762e-02) (45, 8.64358022809028625488e-02) (46, -7.36386552453041076660e-02) (47, -4.48800697922706604004e-02) (48, -9.92824807763099670410e-02) (49, -4.06168363988399505615e-02) (50, -4.71501052379608154297e-02) (51, -5.18527589738368988037e-02) (52, -8.92836973071098327637e-02) (53, 8.93543660640716552734e-03) (54, -2.19830572605133056641e-02) (55, -6.92098960280418395996e-02) (56, -1.07238665223121643066e-02) (57, -3.60427275300025939941e-02) (58, 2.99196019768714904785e-02) (59, 5.87326660752296447754e-02) (60, -8.02036896347999572754e-02) (61, 1.66166424751281738281e-02) (62, 7.58311673998832702637e-02) (63, 9.43598672747611999512e-02) (64, -9.37765017151832580566e-02) (65, 9.83858183026313781738e-02) (66, -2.96848490834236145020e-02) (67, 8.67498293519020080566e-02) (68, 4.41937148571014404297e-03) (69, 7.65245035290718078613e-02) (70, -5.25050163269042968750e-02) (71, -5.18184266984462738037e-02) (72, 8.77106860280036926270e-02) (73, -4.65563721954822540283e-02) (74, -7.29674175381660461426e-02) (75, 3.65760847926139831543e-02) (76, -6.58060014247894287109e-02) (77, -1.40620023012161254883e-03) (78, -3.39767560362815856934e-02) (79, -4.73350547254085540771e-02) (80, 3.97387817502021789551e-02) (0, 8.95541384816169738770e-02) (1, -6.36071413755416870117e-02) (2, -4.52592484652996063232e-02) (3, -7.22135752439498901367e-02) (4, -9.35088172554969787598e-02) (5, -2.71817296743392944336e-03) (6, -8.43166485428810119629e-02) (7, 9.00708511471748352051e-02) (8, 2.06840187311172485352e-02) (9, 3.62975075840950012207e-02) (10, 5.20372912287712097168e-02) (11, -9.31400060653686523438e-03) (12, 5.95987811684608459473e-02) (13, 7.66412094235420227051e-02) (14, -9.11120101809501647949e-02) (15, 8.04966166615486145020e-02) (16, -9.34359282255172729492e-02) (17, 2.24154144525527954102e-02) (18, -6.41909539699554443359e-02) (19, -5.72770051658153533936e-02) (20, -5.45847900211811065674e-02) (21, -6.57179206609725952148e-03) (22, -5.21022640168666839600e-02) (23, -8.27274769544601440430e-02) (24, -7.14428722858428955078e-04) (25, -7.42624700069427490234e-03) (26, -1.29357427358627319336e-02) (27, -1.10947862267494201660e-02) (28, -7.00855031609535217285e-02) (29, 7.29235634207725524902e-02) (30, 2.63333395123481750488e-02) (31, -1.56964436173439025879e-02) (32, -1.00802630186080932617e-02) (33, -1.89078450202941894531e-02) (34, 1.58086791634559631348e-02) (35, 9.65091660618782043457e-02) (36, 2.96729281544685363770e-02) (37, -8.69734063744544982910e-02) (38, 3.80389913916587829590e-02) (39, -7.86032974720001220703e-02) (40, -8.55500102043151855469e-02) (41, -3.89697365462779998779e-02) (42, 3.56336459517478942871e-02) (43, 9.47308316826820373535e-02) (44, -5.88571690022945404053e-02) (45, -1.23858824372291564941e-02) (46, 3.05105671286582946777e-02) (47, -8.94264131784439086914e-03) (48, -9.89531353116035461426e-02) (49, 9.46924015879631042480e-02) (50, 9.50431898236274719238e-02) (51, -9.25581157207489013672e-03) (52, 3.76210138201713562012e-02) (53, 9.63365212082862854004e-02) (54, -7.20239058136940002441e-02) (55, 9.42324325442314147949e-02) (56, -3.56127172708511352539e-02) (57, 5.71349039673805236816e-02) (58, 6.62742927670478820801e-02) (59, 7.20664486289024353027e-02) (60, 2.07705870270729064941e-02) (61, 9.11694541573524475098e-02) (62, 8.50112512707710266113e-02) (63, -1.57920047640800476074e-02) (64, -1.62374973297119140625e-02) (65, 9.63658168911933898926e-02) (66, 2.02875956892967224121e-02) (67, -2.64346599578857421875e-02) (68, -8.73042941093444824219e-02) (69, 7.67634436488151550293e-02) (70, -3.68700772523880004883e-02) (71, -7.54849314689636230469e-02) (72, -7.52821415662765502930e-02) (73, -6.69077187776565551758e-02) (74, 8.19832757115364074707e-02) (75, 9.30728390812873840332e-02) (76, 7.51453414559364318848e-02) (77, -3.22823449969291687012e-02) (78, 3.06125208735466003418e-02) (79, -9.54796150326728820801e-02) (80, 7.40788653492927551270e-02) (0, 4.36650291085243225098e-02) (1, 7.82157853245735168457e-02) (2, -2.72398740053176879883e-02) (3, -2.05039232969284057617e-02) (4, -9.43040102720260620117e-03) (5, -9.67822298407554626465e-02) (6, -1.88743025064468383789e-02) (7, -2.03170627355575561523e-02) (8, -6.89306855201721191406e-02) (9, 8.19264426827430725098e-02) (10, -6.22685812413692474365e-02) (11, 5.19600585103034973145e-02) (12, 9.28532704710960388184e-02) (13, -1.50409862399101257324e-02) (14, 6.15118443965911865234e-03) (15, -1.69186368584632873535e-02) (16, 4.84975799918174743652e-02) (17, 9.88218262791633605957e-02) (18, 9.83888730406761169434e-02) (19, 2.17672735452651977539e-02) (20, 4.24766466021537780762e-02) (21, -9.50714498758316040039e-02) (22, -6.57781958580017089844e-02) (23, 6.58671781420707702637e-02) (24, 2.96643450856208801270e-02) (25, -3.15733999013900756836e-02) (26, -5.41347377002239227295e-02) (27, -4.25361692905426025391e-02) (28, 9.46125760674476623535e-02) (29, -4.64481674134731292725e-02) (30, -5.42929507791996002197e-02) (31, 9.84016582369804382324e-02) (32, 3.66339758038520812988e-02) (33, -9.27801206707954406738e-02) (34, 4.45651635527610778809e-02) (35, 6.67365640401840209961e-03) (36, -3.58434617519378662109e-02) (37, -2.10423767566680908203e-02) (38, -5.92709258198738098145e-02) (39, 3.35751101374626159668e-02) (40, 9.68489572405815124512e-02) (41, -5.96836879849433898926e-02) (42, 9.62876603007316589355e-02) (43, -9.33309197425842285156e-02) (44, -1.27931088209152221680e-02) (45, -1.37291774153709411621e-02) (46, 5.36407306790351867676e-02) (47, -6.03869780898094177246e-02) (48, 7.60939940810203552246e-02) (49, -8.82995873689651489258e-02) (50, -5.10834269225597381592e-02) (51, 4.08863499760627746582e-02) (52, -2.29849368333816528320e-02) (53, 9.22486409544944763184e-02) (54, 2.28646248579025268555e-02) (55, 8.59012082219123840332e-02) (56, -5.82855194807052612305e-02) (57, -4.74749505519866943359e-03) (58, 8.77465307712554931641e-03) (59, 7.56154730916023254395e-02) (60, 6.91558793187141418457e-02) (61, -9.70880091190338134766e-02) (62, 4.18448522686958312988e-02) (63, 8.63377079367637634277e-02) (64, 7.78650119900703430176e-02) (65, 7.72672966122627258301e-02) (66, 3.15244272351264953613e-02) (67, 3.09556499123573303223e-02) (68, 7.16717168688774108887e-02) (69, -1.35221108794212341309e-02) (70, -6.61575719714164733887e-02) (71, 8.97084996104240417480e-02) (72, -6.94114789366722106934e-02) (73, 1.22366100549697875977e-03) (74, -3.39130312204360961914e-02) (75, 2.36096605658531188965e-02) (76, 7.59270042181015014648e-03) (77, 1.06326565146446228027e-02) (78, -9.68550071120262145996e-02) (79, -4.20262478291988372803e-02) (80, 6.49252012372016906738e-02) (0, -2.31526046991348266602e-03) (1, 8.74086543917655944824e-02) (2, 7.72652104496955871582e-02) (3, -3.43440473079681396484e-03) (4, 7.79635831713676452637e-02) (5, -6.61814659833908081055e-02) (6, 8.80686119198799133301e-02) (7, -3.08536440134048461914e-02) (8, 4.28149923682212829590e-02) (9, -8.30318778753280639648e-03) (10, 4.83063533902168273926e-02) (11, 8.49013701081275939941e-02) (12, -6.26179277896881103516e-02) (13, -1.94870233535766601562e-02) (14, 8.15818980336189270020e-02) (15, -5.28630167245864868164e-02) (16, -6.87295496463775634766e-02) (17, 6.24937787652015686035e-02) (18, -6.71388506889343261719e-02) (19, -2.66014039516448974609e-03) (20, 9.10070613026618957520e-02) (21, -4.44631986320018768311e-02) (22, -9.29429754614830017090e-02) (23, -9.25321802496910095215e-02) (24, 1.17170363664627075195e-02) (25, -7.17219561338424682617e-02) (26, -3.09196561574935913086e-02) (27, -6.65697157382965087891e-02) (28, -3.71573716402053833008e-02) (29, 9.61273387074470520020e-02) (30, 1.21612772345542907715e-02) (31, -5.41420280933380126953e-03) (32, 3.43464314937591552734e-03) (33, -7.39486515522003173828e-02) (34, -5.49332164227962493896e-02) (35, -6.25383257865905761719e-02) (36, -8.16286802291870117188e-02) (37, 6.67777881026268005371e-02) (38, -6.56342208385467529297e-02) (39, 8.55817720293998718262e-02) (40, -2.73016244173049926758e-02) (41, -5.83258830010890960693e-02) (42, -8.30573588609695434570e-02) (43, 5.49838468432426452637e-02) (44, -8.65381136536598205566e-02) (45, -4.60478961467742919922e-02) (46, 7.29989334940910339355e-02) (47, 9.29576233029365539551e-02) (48, -6.11406788229942321777e-02) (49, 8.62697511911392211914e-03) (50, -6.36728107929229736328e-03) (51, -1.48281902074813842773e-02) (52, -1.73999816179275512695e-02) (53, -4.14121448993682861328e-02) (54, -1.38766020536422729492e-02) (55, -2.40625590085983276367e-02) (56, -1.95084959268569946289e-02) (57, -7.92278051376342773438e-02) (58, 1.83355659246444702148e-02) (59, -3.41723188757896423340e-02) (60, 6.58418610692024230957e-02) (61, 4.23542410135269165039e-03) (62, -1.52764022350311279297e-02) (63, 4.95192483067512512207e-02) (64, 7.01326802372932434082e-02) (65, -7.99855738878250122070e-02) (66, 8.25177505612373352051e-02) (67, 7.56410136818885803223e-02) (68, 9.85762402415275573730e-02) (69, -2.91130542755126953125e-02) (70, 9.69051793217658996582e-02) (71, 8.52361395955085754395e-02) (72, -3.62457633018493652344e-02) (73, 1.74864307045936584473e-02) (74, 9.43447276949882507324e-02) (75, 5.17866685986518859863e-02) (76, -2.14142799377441406250e-02) (77, 9.01695266366004943848e-02) (78, 7.92309716343879699707e-02) (79, 3.49776670336723327637e-02) (80, 6.95851519703865051270e-02) (81, -8.23870748281478881836e-02) (82, -7.95367583632469177246e-02) (83, 2.56976559758186340332e-02) (84, -9.95419919490814208984e-02) (85, -2.20702588558197021484e-03) (86, -9.35631245374679565430e-02) (87, 8.45988169312477111816e-02) (88, 5.23661449551582336426e-02) (89, -8.24243798851966857910e-02) (90, 9.34395864605903625488e-02) (81, 3.90325412154197692871e-02) (82, 1.99807733297348022461e-02) (83, 1.69036835432052612305e-02) (84, -9.97694283723831176758e-02) (85, -2.47403904795646667480e-02) (86, -1.17421969771385192871e-02) (87, 4.88272234797477722168e-02) (88, 3.91524508595466613770e-02) (89, 3.52270379662513732910e-02) (90, 6.07389286160469055176e-02) (81, 3.93059924244880676270e-02) (82, 1.57891660928726196289e-02) (83, -3.16050946712493896484e-02) (84, 1.31352692842483520508e-02) (85, -3.56221720576286315918e-02) (86, 9.81782153248786926270e-02) (87, 8.11819955706596374512e-02) (88, 2.57305428385734558105e-02) (89, 5.31311705708503723145e-02) (90, -2.45292857289314270020e-02) (81, -6.36467412114143371582e-02) (82, 8.92348363995552062988e-02) (83, -3.01829800009727478027e-02) (84, -8.53552892804145812988e-02) (85, 3.36938723921775817871e-02) (86, 9.29706916213035583496e-02) (87, -4.15875427424907684326e-02) (88, 3.81977632641792297363e-02) (89, -1.02637410163879394531e-02) (90, 9.73226502537727355957e-02) (81, -9.80888530611991882324e-02) (82, 2.06419229507446289062e-02) (83, -7.12579339742660522461e-02) (84, -3.21602597832679748535e-02) (85, 8.25644358992576599121e-02) (86, 6.05820342898368835449e-02) (87, 2.11539119482040405273e-03) (88, -4.66866977512836456299e-02) (89, -6.33036494255065917969e-02) (90, 5.56520447134971618652e-02) (91, -5.60284964740276336670e-02) (92, -7.09571093320846557617e-02) (93, 2.38042026758193969727e-02) (94, 7.72322043776512145996e-02) (95, 4.17683646082878112793e-02) (96, 9.30130481719970703125e-04) (91, 3.26177105307579040527e-02) (92, 5.78679889440536499023e-03) (93, 5.86672350764274597168e-02) (94, 2.02227383852005004883e-02) (95, 8.35336819291114807129e-02) (96, -4.95159514248371124268e-02) (97, -1.45748555660247802734e-02) (98, 4.04360368847846984863e-02) (99, 8.54345411062240600586e-03) 
