FANN_FLO_2.1
num_layers=50
learning_rate=0.700000
connection_rate=1.000000
network_type=0
learning_momentum=0.000000
training_algorithm=2
train_error_function=1
train_stop_function=0
cascade_output_change_fraction=0.010000
quickprop_decay=-0.000100
quickprop_mu=1.750000
rprop_increase_factor=1.200000
rprop_decrease_factor=0.500000
rprop_delta_min=0.000000
rprop_delta_max=50.000000
rprop_delta_zero=0.100000
cascade_output_stagnation_epochs=12
cascade_candidate_change_fraction=0.010000
cascade_candidate_stagnation_epochs=12
cascade_max_out_epochs=150
cascade_min_out_epochs=50
cascade_max_cand_epochs=150
cascade_min_cand_epochs=50
cascade_num_candidate_groups=2
bit_fail_limit=3.49999994039535522461e-01
cascade_candidate_limit=1.00000000000000000000e+03
cascade_weight_multiplier=4.00000005960464477539e-01
cascade_activation_functions_count=10
cascade_activation_functions=3 5 7 8 10 11 14 15 16 17 
cascade_activation_steepnesses_count=4
cascade_activation_steepnesses=2.50000000000000000000e-01 5.00000000000000000000e-01 7.50000000000000000000e-01 1.00000000000000000000e+00 
layer_sizes=2 6 6 6 6 6 6 6 6 6 6 6 6 6 6 6 6 6 6 6 6 6 6 6 6 6 6 6 6 6 6 6 6 6 6 6 6 6 6 6 6 6 6 6 6 6 6 6 6 2 
scale_included=0
neurons (num_inputs, activation_function, activation_steepness)=(0, 0, 0.00000000000000000000e+00) (0, 0, 0.00000000000000000000e+00) (2, 4, 5.00000000000000000000e-01) (2, 4, 5.00000000000000000000e-01) (2, 4, 5.00000000000000000000e-01) (2, 4, 5.00000000000000000000e-01) (2, 4, 5.00000000000000000000e-01) (0, 0, 0.00000000000000000000e+00) (6, 4, 5.00000000000000000000e-01) (6, 4, 5.00000000000000000000e-01) (6, 4, 5.00000000000000000000e-01) (6, 4, 5.00000000000000000000e-01) (6, 4, 5.00000000000000000000e-01) (0, 0, 0.00000000000000000000e+00) (6, 4, 5.00000000000000000000e-01) (6, 4, 5.00000000000000000000e-01) (6, 4, 5.00000000000000000000e-01) (6, 4, 5.00000000000000000000e-01) (6, 4, 5.00000000000000000000e-01) (0, 0, 0.00000000000000000000e+00) (6, 4, 5.00000000000000000000e-01) (6, 4, 5.00000000000000000000e-01) (6, 4, 5.00000000000000000000e-01) (6, 4, 5.00000000000000000000e-01) (6, 4, 5.00000000000000000000e-01) (0, 0, 0.00000000000000000000e+00) (6, 4, 5.00000000000000000000e-01) (6, 4, 5.00000000000000000000e-01) (6, 4, 5.00000000000000000000e-01) (6, 4, 5.00000000000000000000e-01) (6, 4, 5.00000000000000000000e-01) (0, 0, 0.00000000000000000000e+00) (6, 4, 5.00000000000000000000e-01) (6, 4, 5.00000000000000000000e-01) (6, 4, 5.00000000000000000000e-01) (6, 4, 5.00000000000000000000e-01) (6, 4, 5.00000000000000000000e-01) (0, 0, 0.00000000000000000000e+00) (6, 4, 5.00000000000000000000e-01) (6, 4, 5.00000000000000000000e-01) (6, 4, 5.00000000000000000000e-01) (6, 4, 5.00000000000000000000e-01) (6, 4, 5.00000000000000000000e-01) (0, 0, 0.00000000000000000000e+00) (6, 4, 5.00000000000000000000e-01) (6, 4, 5.00000000000000000000e-01) (6, 4, 5.00000000000000000000e-01) (6, 4, 5.00000000000000000000e-01) (6, 4, 5.00000000000000000000e-01) (0, 0, 0.00000000000000000000e+00) (6, 4, 5.00000000000000000000e-01) (6, 4, 5.00000000000000000000e-01) (6, 4, 5.00000000000000000000e-01) (6, 4, 5.00000000000000000000e-01) (6, 4, 5.00000000000000000000e-01) (0, 0, 0.00000000000000000000e+00) (6, 4, 5.00000000000000000000e-01) (6, 4, 5.00000000000000000000e-01) (6, 4, 5.00000000000000000000e-01) (6, 4, 5.00000000000000000000e-01) (6, 4, 5.00000000000000000000e-01) (0, 0, 0.00000000000000000000e+00) (6, 4, 5.00000000000000000000e-01) (6, 4, 5.00000000000000000000e-01) (6, 4, 5.00000000000000000000e-01) (6, 4, 5.00000000000000000000e-01) (6, 4, 5.00000000000000000000e-01) (0, 0, 0.00000000000000000000e+00) (6, 4, 5.00000000000000000000e-01) (6, 4, 5.00000000000000000000e-01) (6, 4, 5.00000000000000000000e-01) (6, 4, 5.00000000000000000000e-01) (6, 4, 5.00000000000000000000e-01) (0, 0, 0.00000000000000000000e+00) (6, 4, 5.00000000000000000000e-01) (6, 4, 5.00000000000000000000e-01) (6, 4, 5.00000000000000000000e-01) (6, 4, 5.00000000000000000000e-01) (6, 4, 5.00000000000000000000e-01) (0, 0, 0.00000000000000000000e+00) (6, 4, 5.00000000000000000000e-01) (6, 4, 5.00000000000000000000e-01) (6, 4, 5.00000000000000000000e-01) (6, 4, 5.00000000000000000000e-01) (6, 4, 5.00000000000000000000e-01) (0, 0, 0.00000000000000000000e+00) (6, 4, 5.00000000000000000000e-01) (6, 4, 5.00000000000000000000e-01) (6, 4, 5.00000000000000000000e-01) (6, 4, 5.00000000000000000000e-01) (6, 4, 5.00000000000000000000e-01) (0, 0, 0.00000000000000000000e+00) (6, 4, 5.00000000000000000000e-01) (6, 4, 5.00000000000000000000e-01) (6, 4, 5.00000000000000000000e-01) (6, 4, 5.00000000000000000000e-01) (6, 4, 5.00000000000000000000e-01) (0, 0, 0.00000000000000000000e+00) (6, 4, 5.00000000000000000000e-01) (6, 4, 5.00000000000000000000e-01) (6, 4, 5.00000000000000000000e-01) (6, 4, 5.00000000000000000000e-01) (6, 4, 5.00000000000000000000e-01) (0, 0, 0.00000000000000000000e+00) (6, 4, 5.00000000000000000000e-01) (6, 4, 5.00000000000000000000e-01) (6, 4, 5.00000000000000000000e-01) (6, 4, 5.00000000000000000000e-01) (6, 4, 5.00000000000000000000e-01) (0, 0, 0.00000000000000000000e+00) (6, 4, 5.00000000000000000000e-01) (6, 4, 5.00000000000000000000e-01) (6, 4, 5.00000000000000000000e-01) (6, 4, 5.00000000000000000000e-01) (6, 4, 5.00000000000000000000e-01) (0, 0, 0.00000000000000000000e+00) (6, 4, 5.00000000000000000000e-01) (6, 4, 5.00000000000000000000e-01) (6, 4, 5.00000000000000000000e-01) (6, 4, 5.00000000000000000000e-01) (6, 4, 5.00000000000000000000e-01) (0, 0, 0.00000000000000000000e+00) (6, 4, 5.00000000000000000000e-01) (6, 4, 5.00000000000000000000e-01) (6, 4, 5.00000000000000000000e-01) (6, 4, 5.00000000000000000000e-01) (6, 4, 5.00000000000000000000e-01) (0, 0, 0.00000000000000000000e+00) (6, 4, 5.00000000000000000000e-01) (6, 4, 5.00000000000000000000e-01) (6, 4, 5.00000000000000000000e-01) (6, 4, 5.00000000000000000000e-01) (6, 4, 5.00000000000000000000e-01) (0, 0, 0.00000000000000000000e+00) (6, 4, 5.00000000000000000000e-01) (6, 4, 5.00000000000000000000e-01) (6, 4, 5.00000000000000000000e-01) (6, 4, 5.00000000000000000000e-01) (6, 4, 5.00000000000000000000e-01) (0, 0, 0.00000000000000000000e+00) (6, 4, 5.00000000000000000000e-01) (6, 4, 5.00000000000000000000e-01) (6, 4, 5.00000000000000000000e-01) (6, 4, 5.00000000000000000000e-01) (6, 4, 5.00000000000000000000e-01) (0, 0, 0.00000000000000000000e+00) (6, 4, 5.00000000000000000000e-01) (6, 4, 5.00000000000000000000e-01) (6, 4, 5.00000000000000000000e-01) (6, 4, 5.00000000000000000000e-01) (6, 4, 5.00000000000000000000e-01) (0, 0, 0.00000000000000000000e+00) (6, 4, 5.00000000000000000000e-01) (6, 4, 5.00000000000000000000e-01) (6, 4, 5.00000000000000000000e-01) (6, 4, 5.00000000000000000000e-01) (6, 4, 5.00000000000000000000e-01) (0, 0, 0.00000000000000000000e+00) (6, 4, 5.00000000000000000000e-01) (6, 4, 5.00000000000000000000e-01) (6, 4, 5.00000000000000000000e-01) (6, 4, 5.00000000000000000000e-01) (6, 4, 5.00000000000000000000e-01) (0, 0, 0.00000000000000000000e+00) (6, 4, 5.00000000000000000000e-01) (6, 4, 5.00000000000000000000e-01) (6, 4, 5.00000000000000000000e-01) (6, 4, 5.00000000000000000000e-01) (6, 4, 5.00000000000000000000e-01) (0, 0, 0.00000000000000000000e+00) (6, 4, 5.00000000000000000000e-01) (6, 4, 5.00000000000000000000e-01) (6, 4, 5.00000000000000000000e-01) (6, 4, 5.00000000000000000000e-01) (6, 4, 5.00000000000000000000e-01) (0, 0, 0.00000000000000000000e+00) (6, 4, 5.00000000000000000000e-01) (6, 4, 5.00000000000000000000e-01) (6, 4, 5.00000000000000000000e-01) (6, 4, 5.00000000000000000000e-01) (6, 4, 5.00000000000000000000e-01) (0, 0, 0.00000000000000000000e+00) (6, 4, 5.00000000000000000000e-01) (6, 4, 5.00000000000000000000e-01) (6, 4, 5.00000000000000000000e-01) (6, 4, 5.00000000000000000000e-01) (6, 4, 5.00000000000000000000e-01) (0, 0, 0.00000000000000000000e+00) (6, 4, 5.00000000000000000000e-01) (6, 4, 5.00000000000000000000e-01) (6, 4, 5.00000000000000000000e-01) (6, 4, 5.00000000000000000000e-01) (6, 4, 5.00000000000000000000e-01) (0, 0, 0.00000000000000000000e+00) (6, 4, 5.00000000000000000000e-01) (6, 4, 5.00000000000000000000e-01) (6, 4, 5.00000000000000000000e-01) (6, 4, 5.00000000000000000000e-01) (6, 4, 5.00000000000000000000e-01) (0, 0, 0.00000000000000000000e+00) (6, 4, 5.00000000000000000000e-01) (6, 4, 5.00000000000000000000e-01) (6, 4, 5.00000000000000000000e-01) (6, 4, 5.00000000000000000000e-01) (6, 4, 5.00000000000000000000e-01) (0, 0, 0.00000000000000000000e+00) (6, 4, 5.00000000000000000000e-01) (6, 4, 5.00000000000000000000e-01) (6, 4, 5.00000000000000000000e-01) (6, 4, 5.00000000000000000000e-01) (6, 4, 5.00000000000000000000e-01) (0, 0, 0.00000000000000000000e+00) (6, 4, 5.00000000000000000000e-01) (6, 4, 5.00000000000000000000e-01) (6, 4, 5.00000000000000000000e-01) (6, 4, 5.00000000000000000000e-01) (6, 4, 5.00000000000000000000e-01) (0, 0, 0.00000000000000000000e+00) (6, 4, 5.00000000000000000000e-01) (6, 4, 5.00000000000000000000e-01) (6, 4, 5.00000000000000000000e-01) (6, 4, 5.00000000000000000000e-01) (6, 4, 5.00000000000000000000e-01) (0, 0, 0.00000000000000000000e+00) (6, 4, 5.00000000000000000000e-01) (6, 4, 5.00000000000000000000e-01) (6, 4, 5.00000000000000000000e-01) (6, 4, 5.00000000000000000000e-01) (6, 4, 5.00000000000000000000e-01) (0, 0, 0.00000000000000000000e+00) (6, 4, 5.00000000000000000000e-01) (6, 4, 5.00000000000000000000e-01) (6, 4, 5.00000000000000000000e-01) (6, 4, 5.00000000000000000000e-01) (6, 4, 5.00000000000000000000e-01) (0, 0, 0.00000000000000000000e+00) (6, 4, 5.00000000000000000000e-01) (6, 4, 5.00000000000000000000e-01) (6, 4, 5.00000000000000000000e-01) (6, 4, 5.00000000000000000000e-01) (6, 4, 5.00000000000000000000e-01) (0, 0, 0.00000000000000000000e+00) (6, 4, 5.00000000000000000000e-01) (6, 4, 5.00000000000000000000e-01) (6, 4, 5.00000000000000000000e-01) (6, 4, 5.00000000000000000000e-01) (6, 4, 5.00000000000000000000e-01) (0, 0, 0.00000000000000000000e+00) (6, 4, 5.00000000000000000000e-01) (6, 4, 5.00000000000000000000e-01) (6, 4, 5.00000000000000000000e-01) (6, 4, 5.00000000000000000000e-01) (6, 4, 5.00000000000000000000e-01) (0, 0, 0.00000000000000000000e+00) (6, 4, 5.00000000000000000000e-01) (6, 4, 5.00000000000000000000e-01) (6, 4, 5.00000000000000000000e-01) (6, 4, 5.00000000000000000000e-01) (6, 4, 5.00000000000000000000e-01) (0, 0, 0.00000000000000000000e+00) (6, 4, 5.00000000000000000000e-01) (6, 4, 5.00000000000000000000e-01) (6, 4, 5.00000000000000000000e-01) (6, 4, 5.00000000000000000000e-01) (6, 4, 5.00000000000000000000e-01) (0, 0, 0.00000000000000000000e+00) (6, 4, 5.00000000000000000000e-01) (6, 4, 5.00000000000000000000e-01) (6, 4, 5.00000000000000000000e-01) (6, 4, 5.00000000000000000000e-01) (6, 4, 5.00000000000000000000e-01) (0, 0, 0.00000000000000000000e+00) (6, 4, 5.00000000000000000000e-01) (6, 4, 5.00000000000000000000e-01) (6, 4, 5.00000000000000000000e-01) (6, 4, 5.00000000000000000000e-01) (6, 4, 5.00000000000000000000e-01) (0, 0, 0.00000000000000000000e+00) (6, 4, 5.00000000000000000000e-01) (6, 4, 5.00000000000000000000e-01) (6, 4, 5.00000000000000000000e-01) (6, 4, 5.00000000000000000000e-01) (6, 4, 5.00000000000000000000e-01) (0, 0, 0.00000000000000000000e+00) (6, 4, 5.00000000000000000000e-01) (6, 4, 5.00000000000000000000e-01) (6, 4, 5.00000000000000000000e-01) (6, 4, 5.00000000000000000000e-01) (6, 4, 5.00000000000000000000e-01) (0, 0, 0.00000000000000000000e+00) (6, 4, 5.00000000000000000000e-01) (0, 0, 0.00000000000000000000e+00) 
connections (connected_to_neuron, weight)=(0, -1.50000000000000000000e+03) (1, 5.94653320312500000000e+00) (0, -1.50000000000000000000e+03) (1, -2.27682819366455078125e+01) (0, -1.50000000000000000000e+03) (1, -2.27306385040283203125e+01) (0, 1.50000000000000000000e+03) (1, 6.90547714233398437500e+01) (0, 1.50000000000000000000e+03) (1, 6.93645477294921875000e+01) (2, 1.50000000000000000000e+03) (3, 1.50000000000000000000e+03) (4, 1.50000000000000000000e+03) (5, -1.83575553894042968750e+01) (6, -1.81660709381103515625e+01) (7, -1.57107858657836914062e+01) (2, 1.50000000000000000000e+03) (3, 1.50000000000000000000e+03) (4, 1.50000000000000000000e+03) (5, -3.01825847625732421875e+01) (6, -3.00310039520263671875e+01) (7, -3.87018966674804687500e+01) (2, 1.50000000000000000000e+03) (3, 1.50000000000000000000e+03) (4, 1.50000000000000000000e+03) (5, -1.83383407592773437500e+01) (6, -1.82296066284179687500e+01) (7, -1.57480669021606445312e+01) (2, 1.50000000000000000000e+03) (3, 1.50000000000000000000e+03) (4, 1.50000000000000000000e+03) (5, -1.96096115112304687500e+01) (6, -1.96462841033935546875e+01) (7, -1.83689556121826171875e+01) (2, 1.50000000000000000000e+03) (3, 1.50000000000000000000e+03) (4, 1.50000000000000000000e+03) (5, -2.21152057647705078125e+01) (6, -2.13955707550048828125e+01) (7, -1.87012004852294921875e+01) (8, 1.50000000000000000000e+03) (9, 1.50000000000000000000e+03) (10, 1.50000000000000000000e+03) (11, 1.50000000000000000000e+03) (12, 1.50000000000000000000e+03) (13, -3.52374382019042968750e+01) (8, 1.50000000000000000000e+03) (9, 1.50000000000000000000e+03) (10, 1.50000000000000000000e+03) (11, 1.50000000000000000000e+03) (12, 1.50000000000000000000e+03) (13, -2.82425994873046875000e+01) (8, 1.50000000000000000000e+03) (9, 1.50000000000000000000e+03) (10, 1.50000000000000000000e+03) (11, 1.50000000000000000000e+03) (12, 1.50000000000000000000e+03) (13, -2.82620086669921875000e+01) (8, 1.50000000000000000000e+03) (9, 1.50000000000000000000e+03) (10, 1.50000000000000000000e+03) (11, 1.50000000000000000000e+03) (12, 1.50000000000000000000e+03) (13, -2.82762603759765625000e+01) (8, 1.50000000000000000000e+03) (9, 1.50000000000000000000e+03) (10, 1.50000000000000000000e+03) (11, 1.50000000000000000000e+03) (12, 1.50000000000000000000e+03) (13, -2.81837234497070312500e+01) (14, 1.50000000000000000000e+03) (15, 1.50000000000000000000e+03) (16, 1.50000000000000000000e+03) (17, 1.50000000000000000000e+03) (18, 1.50000000000000000000e+03) (19, -1.22172632217407226562e+01) (14, 1.50000000000000000000e+03) (15, 1.50000000000000000000e+03) (16, 1.50000000000000000000e+03) (17, 1.50000000000000000000e+03) (18, 1.50000000000000000000e+03) (19, -1.12802400588989257812e+01) (14, 1.50000000000000000000e+03) (15, 1.50000000000000000000e+03) (16, 1.50000000000000000000e+03) (17, 1.50000000000000000000e+03) (18, 1.50000000000000000000e+03) (19, -1.20509443283081054688e+01) (14, 1.50000000000000000000e+03) (15, 1.50000000000000000000e+03) (16, 1.50000000000000000000e+03) (17, 1.50000000000000000000e+03) (18, 1.50000000000000000000e+03) (19, -1.21946382522583007812e+01) (14, 1.50000000000000000000e+03) (15, 1.50000000000000000000e+03) (16, 1.50000000000000000000e+03) (17, 1.50000000000000000000e+03) (18, 1.50000000000000000000e+03) (19, -1.21966238021850585938e+01) (20, 1.50000000000000000000e+03) (21, 1.50000000000000000000e+03) (22, 1.50000000000000000000e+03) (23, 1.50000000000000000000e+03) (24, 1.50000000000000000000e+03) (25, -1.48524789810180664062e+01) (20, 1.50000000000000000000e+03) (21, 1.50000000000000000000e+03) (22, 1.50000000000000000000e+03) (23, 1.50000000000000000000e+03) (24, 1.50000000000000000000e+03) (25, -1.47164316177368164062e+01) (20, 1.50000000000000000000e+03) (21, 1.50000000000000000000e+03) (22, 1.50000000000000000000e+03) (23, 1.50000000000000000000e+03) (24, 1.50000000000000000000e+03) (25, -1.47472963333129882812e+01) (20, 1.50000000000000000000e+03) (21, 1.50000000000000000000e+03) (22, 1.50000000000000000000e+03) (23, 1.50000000000000000000e+03) (24, 1.50000000000000000000e+03) (25, -1.48457098007202148438e+01) (20, 1.50000000000000000000e+03) (21, 1.50000000000000000000e+03) (22, 1.50000000000000000000e+03) (23, 1.50000000000000000000e+03) (24, 1.50000000000000000000e+03) (25, -1.46848058700561523438e+01) (26, 1.50000000000000000000e+03) (27, 1.50000000000000000000e+03) (28, 1.50000000000000000000e+03) (29, 1.50000000000000000000e+03) (30, 1.50000000000000000000e+03) (31, 1.56930017471313476562e+01) (26, 1.50000000000000000000e+03) (27, 1.50000000000000000000e+03) (28, 1.50000000000000000000e+03) (29, 1.50000000000000000000e+03) (30, 1.50000000000000000000e+03) (31, 1.57000055313110351562e+01) (26, 1.50000000000000000000e+03) (27, 1.50000000000000000000e+03) (28, 1.50000000000000000000e+03) (29, 1.50000000000000000000e+03) (30, 1.50000000000000000000e+03) (31, 1.58279085159301757812e+01) (26, 1.50000000000000000000e+03) (27, 1.50000000000000000000e+03) (28, 1.50000000000000000000e+03) (29, 1.50000000000000000000e+03) (30, 1.50000000000000000000e+03) (31, 1.57678804397583007812e+01) (26, 1.50000000000000000000e+03) (27, 1.50000000000000000000e+03) (28, 1.50000000000000000000e+03) (29, 1.50000000000000000000e+03) (30, 1.50000000000000000000e+03) (31, 1.58006296157836914062e+01) (32, 1.12012987136840820312e+01) (33, 1.10554151535034179688e+01) (34, 1.12169485092163085938e+01) (35, 1.10975141525268554688e+01) (36, 1.11615514755249023438e+01) (37, 1.12204523086547851562e+01) (32, 1.11742219924926757812e+01) (33, 1.11736898422241210938e+01) (34, 1.12436380386352539062e+01) (35, 1.10650739669799804688e+01) (36, 1.11247377395629882812e+01) (37, 1.10925588607788085938e+01) (32, 1.10865602493286132812e+01) (33, 1.10568170547485351562e+01) (34, 1.11617784500122070312e+01) (35, 1.10636739730834960938e+01) (36, 1.11993894577026367188e+01) (37, 1.11765699386596679688e+01) (32, 1.12526102066040039062e+01) (33, 1.10643377304077148438e+01) (34, 1.11541509628295898438e+01) (35, 1.12500238418579101562e+01) (36, 1.12017450332641601562e+01) (37, 1.11574449539184570312e+01) (32, 1.12160749435424804688e+01) (33, 1.12239465713500976562e+01) (34, 1.11147069931030273438e+01) (35, 1.11180105209350585938e+01) (36, 1.12539491653442382812e+01) (37, 1.11669187545776367188e+01) (38, 7.67103729248046875000e+01) (39, 7.65307159423828125000e+01) (40, 7.65391387939453125000e+01) (41, 7.65384063720703125000e+01) (42, 7.66667938232421875000e+01) (43, 2.21782264709472656250e+01) (38, 7.65963592529296875000e+01) (39, 7.66031036376953125000e+01) (40, 7.66187744140625000000e+01) (41, 7.66493225097656250000e+01) (42, 7.66720428466796875000e+01) (43, 2.22448654174804687500e+01) (38, 7.65771179199218750000e+01) (39, 7.66321868896484375000e+01) (40, 7.65408172607421875000e+01) (41, 7.66917266845703125000e+01) (42, 7.66230468750000000000e+01) (43, 2.21073493957519531250e+01) (38, 7.65713500976562500000e+01) (39, 7.66612243652343750000e+01) (40, 7.65680694580078125000e+01) (41, 7.65398864746093750000e+01) (42, 7.65641937255859375000e+01) (43, 2.22250633239746093750e+01) (38, 7.65676727294921875000e+01) (39, 7.65551147460937500000e+01) (40, 7.65561218261718750000e+01) (41, 7.65776367187500000000e+01) (42, 7.65396881103515625000e+01) (43, 2.21431655883789062500e+01) (44, 2.75092010498046875000e+01) (45, 2.76313705444335937500e+01) (46, 2.75454177856445312500e+01) (47, 2.75330924987792968750e+01) (48, 2.75822105407714843750e+01) (49, 2.75084724426269531250e+01) (44, 2.75711250305175781250e+01) (45, 2.76015434265136718750e+01) (46, 2.76254730224609375000e+01) (47, 2.76075859069824218750e+01) (48, 2.76349411010742187500e+01) (49, 2.75493812561035156250e+01) (44, 2.75800895690917968750e+01) (45, 2.76090126037597656250e+01) (46, 2.75372352600097656250e+01) (47, 2.75987854003906250000e+01) (48, 2.74865303039550781250e+01) (49, 2.76429862976074218750e+01) (44, 2.75329780578613281250e+01) (45, 2.76751022338867187500e+01) (46, 2.75222549438476562500e+01) (47, 2.76307868957519531250e+01) (48, 2.75298881530761718750e+01) (49, 2.74902534484863281250e+01) (44, 2.76023597717285156250e+01) (45, 2.75251808166503906250e+01) (46, 2.75602226257324218750e+01) (47, 2.75980834960937500000e+01) (48, 2.76743278503417968750e+01) (49, 2.75480995178222656250e+01) (50, 3.86097679138183593750e+01) (51, 3.86535530090332031250e+01) (52, 3.86430244445800781250e+01) (53, 3.85827980041503906250e+01) (54, 3.85512580871582031250e+01) (55, 3.86273765563964843750e+01) (50, 3.85988349914550781250e+01) (51, 3.86430397033691406250e+01) (52, 3.85896568298339843750e+01) (53, 3.85476112365722656250e+01) (54, 3.85782890319824218750e+01) (55, 3.87052803039550781250e+01) (50, 3.86942329406738281250e+01) (51, 3.85685310363769531250e+01) (52, 3.85556373596191406250e+01) (53, 3.86442985534667968750e+01) (54, 3.85810050964355468750e+01) (55, 3.86013450622558593750e+01) (50, 3.86818428039550781250e+01) (51, 3.85381202697753906250e+01) (52, 3.85907859802246093750e+01) (53, 3.85357170104980468750e+01) (54, 3.86137428283691406250e+01) (55, 3.86698341369628906250e+01) (50, 3.86847953796386718750e+01) (51, 3.86569252014160156250e+01) (52, 3.85647315979003906250e+01) (53, 3.86808204650878906250e+01) (54, 3.85911293029785156250e+01) (55, 3.85622978210449218750e+01) (56, 4.31875343322753906250e+01) (57, 4.32158088684082031250e+01) (58, 4.32525520324707031250e+01) (59, 4.31718406677246093750e+01) (60, 4.32734947204589843750e+01) (61, 4.33272743225097656250e+01) (56, 4.32452125549316406250e+01) (57, 4.32004432678222656250e+01) (58, 4.33155174255371093750e+01) (59, 4.32725639343261718750e+01) (60, 4.32648811340332031250e+01) (61, 4.33512916564941406250e+01) (56, 4.33390846252441406250e+01) (57, 4.32774085998535156250e+01) (58, 4.33629646301269531250e+01) (59, 4.32965888977050781250e+01) (60, 4.32658119201660156250e+01) (61, 4.31862831115722656250e+01) (56, 3.90001487731933593750e+01) (57, 3.91462211608886718750e+01) (58, 3.90862159729003906250e+01) (59, 3.91480445861816406250e+01) (60, 3.90689964294433593750e+01) (61, 3.91171073913574218750e+01) (56, 4.39155006408691406250e+01) (57, 4.38605308532714843750e+01) (58, 4.37925758361816406250e+01) (59, 4.38080329895019531250e+01) (60, 4.38917045593261718750e+01) (61, 4.33599433898925781250e+01) (62, 5.95306739807128906250e+01) (63, 5.94870796203613281250e+01) (64, 5.95219001770019531250e+01) (65, 4.82861366271972656250e+01) (66, 5.94029273986816406250e+01) (67, 4.61512947082519531250e+01) (62, 5.88236885070800781250e+01) (63, 5.88641014099121093750e+01) (64, 5.88862648010253906250e+01) (65, 4.76934242248535156250e+01) (66, 5.89513130187988281250e+01) (67, 4.53978385925292968750e+01) (62, 5.88097724914550781250e+01) (63, 5.88876380920410156250e+01) (64, 5.88534355163574218750e+01) (65, 4.76037788391113281250e+01) (66, 5.87801704406738281250e+01) (67, 4.54332389831542968750e+01) (62, 5.93736305236816406250e+01) (63, 5.94812660217285156250e+01) (64, 5.94380226135253906250e+01) (65, 4.82836494445800781250e+01) (66, 5.94600563049316406250e+01) (67, 4.60684700012207031250e+01) (62, 5.89606361389160156250e+01) (63, 5.87805519104003906250e+01) (64, 5.88672370910644531250e+01) (65, 4.76228675842285156250e+01) (66, 5.88077430725097656250e+01) (67, 4.54235649108886718750e+01) (68, 5.03634757995605468750e+01) (69, 5.04094657897949218750e+01) (70, 5.03893241882324218750e+01) (71, 5.04853248596191406250e+01) (72, 5.05192985534667968750e+01) (73, 5.04927558898925781250e+01) (68, 5.04809913635253906250e+01) (69, 5.05083656311035156250e+01) (70, 5.05192375183105468750e+01) (71, 5.05278205871582031250e+01) (72, 5.03661689758300781250e+01) (73, 5.05102500915527343750e+01) (68, 5.04767951965332031250e+01) (69, 5.05502662658691406250e+01) (70, 5.03874168395996093750e+01) (71, 5.04289741516113281250e+01) (72, 5.04734840393066406250e+01) (73, 5.05226402282714843750e+01) (68, 5.05092582702636718750e+01) (69, 5.04306373596191406250e+01) (70, 5.03668403625488281250e+01) (71, 5.05460319519042968750e+01) (72, 5.04031257629394531250e+01) (73, 5.03745765686035156250e+01) (68, 5.05349617004394531250e+01) (69, 5.03907890319824218750e+01) (70, 5.04691123962402343750e+01) (71, 5.04320640563964843750e+01) (72, 5.05416069030761718750e+01) (73, 5.04090461730957031250e+01) (74, 5.59513053894042968750e+01) (75, 5.59046134948730468750e+01) (76, 5.59363441467285156250e+01) (77, 5.58729515075683593750e+01) (78, 5.60161476135253906250e+01) (79, 5.58589439392089843750e+01) (74, 5.79455909729003906250e+01) (75, 5.79516944885253906250e+01) (76, 5.79545936584472656250e+01) (77, 5.78613700866699218750e+01) (78, 5.79102363586425781250e+01) (79, 5.34450263977050781250e+01) (74, 5.59321632385253906250e+01) (75, 5.59997138977050781250e+01) (76, 5.58915138244628906250e+01) (77, 5.58781318664550781250e+01) (78, 5.58628425598144531250e+01) (79, 5.60291328430175781250e+01) (74, 5.78883552551269531250e+01) (75, 5.78340492248535156250e+01) (76, 5.78645362854003906250e+01) (77, 5.78864479064941406250e+01) (78, 5.78367195129394531250e+01) (79, 5.33868751525878906250e+01) (74, 5.79894294738769531250e+01) (75, 5.78208198547363281250e+01) (76, 5.78637733459472656250e+01) (77, 5.79396247863769531250e+01) (78, 5.78307075500488281250e+01) (79, 5.33896446228027343750e+01) (80, -2.28958625793457031250e+01) (81, -2.07728977203369140625e+01) (82, -2.29949150085449218750e+01) (83, -2.08437900543212890625e+01) (84, -2.07615528106689453125e+01) (85, -2.29977684020996093750e+01) (80, -2.29109840393066406250e+01) (81, -2.08201084136962890625e+01) (82, -2.28711738586425781250e+01) (83, -2.08325443267822265625e+01) (84, -2.08132877349853515625e+01) (85, -2.30483055114746093750e+01) (80, -2.30633964538574218750e+01) (81, -2.08957920074462890625e+01) (82, -2.29193687438964843750e+01) (83, -2.09163990020751953125e+01) (84, -2.08724842071533203125e+01) (85, -2.29228858947753906250e+01) (80, -2.28788490295410156250e+01) (81, -2.08963794708251953125e+01) (82, -2.29270362854003906250e+01) (83, -2.08848361968994140625e+01) (84, -2.08156223297119140625e+01) (85, -2.28875999450683593750e+01) (80, -2.29390144348144531250e+01) (81, -2.09144763946533203125e+01) (82, -2.29701118469238281250e+01) (83, -2.08779697418212890625e+01) (84, -2.07823734283447265625e+01) (85, -2.28983116149902343750e+01) (86, 1.50000000000000000000e+03) (87, 1.50000000000000000000e+03) (88, 1.50000000000000000000e+03) (89, 1.50000000000000000000e+03) (90, 1.50000000000000000000e+03) (91, -2.02686786651611328125e+01) (86, 1.50000000000000000000e+03) (87, 1.50000000000000000000e+03) (88, 1.50000000000000000000e+03) (89, 1.50000000000000000000e+03) (90, 1.50000000000000000000e+03) (91, -2.04138126373291015625e+01) (86, 1.50000000000000000000e+03) (87, 1.50000000000000000000e+03) (88, 1.50000000000000000000e+03) (89, 1.50000000000000000000e+03) (90, 1.50000000000000000000e+03) (91, -1.96877307891845703125e+01) (86, 1.50000000000000000000e+03) (87, 1.50000000000000000000e+03) (88, 1.50000000000000000000e+03) (89, 1.50000000000000000000e+03) (90, 1.50000000000000000000e+03) (91, -2.03250675201416015625e+01) (86, 1.50000000000000000000e+03) (87, 1.50000000000000000000e+03) (88, 1.50000000000000000000e+03) (89, 1.50000000000000000000e+03) (90, 1.50000000000000000000e+03) (91, -2.02723178863525390625e+01) (92, 1.50000000000000000000e+03) (93, 1.50000000000000000000e+03) (94, 1.50000000000000000000e+03) (95, 1.50000000000000000000e+03) (96, 1.50000000000000000000e+03) (97, 1.36393823623657226562e+01) (92, 1.50000000000000000000e+03) (93, 1.50000000000000000000e+03) (94, 1.50000000000000000000e+03) (95, 1.50000000000000000000e+03) (96, 1.50000000000000000000e+03) (97, 1.36116762161254882812e+01) (92, 1.50000000000000000000e+03) (93, 1.50000000000000000000e+03) (94, 1.50000000000000000000e+03) (95, 1.50000000000000000000e+03) (96, 1.50000000000000000000e+03) (97, 1.42474412918090820312e+01) (92, 1.50000000000000000000e+03) (93, 1.50000000000000000000e+03) (94, 1.50000000000000000000e+03) (95, 1.50000000000000000000e+03) (96, 1.50000000000000000000e+03) (97, 1.36058282852172851562e+01) (92, 1.50000000000000000000e+03) (93, 1.50000000000000000000e+03) (94, 1.50000000000000000000e+03) (95, 1.50000000000000000000e+03) (96, 1.50000000000000000000e+03) (97, 1.43069276809692382812e+01) (98, 1.09677780151367187500e+02) (99, 1.09668777465820312500e+02) (100, 1.78067581176757812500e+02) (101, 1.09695571899414062500e+02) (102, 1.78022872924804687500e+02) (103, 1.75825138092041015625e+01) (98, 3.51031433105468750000e+02) (99, 3.50852783203125000000e+02) (100, 3.51030700683593750000e+02) (101, 3.50875244140625000000e+02) (102, 3.50936035156250000000e+02) (103, 2.33900928497314453125e+01) (98, 3.50926391601562500000e+02) (99, 3.50961364746093750000e+02) (100, 3.50928100585937500000e+02) (101, 3.50963867187500000000e+02) (102, 3.50968566894531250000e+02) (103, 2.33917675018310546875e+01) (98, 3.50888610839843750000e+02) (99, 3.50960388183593750000e+02) (100, 3.50966979980468750000e+02) (101, 3.50923278808593750000e+02) (102, 3.50904418945312500000e+02) (103, 2.33721599578857421875e+01) (98, 3.50955932617187500000e+02) (99, 3.50892456054687500000e+02) (100, 3.50876892089843750000e+02) (101, 3.51016418457031250000e+02) (102, 3.50948791503906250000e+02) (103, 2.35172824859619140625e+01) (104, -1.55195407867431640625e+01) (105, 1.73168762207031250000e+02) (106, 1.73104431152343750000e+02) (107, 1.73118408203125000000e+02) (108, 1.73171356201171875000e+02) (109, 2.53630199432373046875e+01) (104, -3.13707141876220703125e+01) (105, 9.56799621582031250000e+01) (106, 9.57011260986328125000e+01) (107, 9.57881622314453125000e+01) (108, 9.57246551513671875000e+01) (109, 9.43895053863525390625e+00) (104, -1.47505140304565429688e+01) (105, 1.73636138916015625000e+02) (106, 1.73637969970703125000e+02) (107, 1.73770874023437500000e+02) (108, 1.73670532226562500000e+02) (109, 2.58976421356201171875e+01) (104, -1.48348035812377929688e+01) (105, 1.73730346679687500000e+02) (106, 1.73751647949218750000e+02) (107, 1.73585968017578125000e+02) (108, 1.73702606201171875000e+02) (109, 2.60089778900146484375e+01) (104, -3.13170185089111328125e+01) (105, 9.56732635498046875000e+01) (106, 9.57481536865234375000e+01) (107, 9.57461242675781250000e+01) (108, 9.57337188720703125000e+01) (109, 9.33749485015869140625e+00) (110, 1.31793243408203125000e+02) (111, 1.45017959594726562500e+02) (112, 1.31816116333007812500e+02) (113, 1.31800155639648437500e+02) (114, 1.45122238159179687500e+02) (115, 1.91666507720947265625e+01) (110, 1.31322753906250000000e+02) (111, 1.44552474975585937500e+02) (112, 1.31178970336914062500e+02) (113, 1.31191833496093750000e+02) (114, 1.44579727172851562500e+02) (115, 1.86661357879638671875e+01) (110, 1.31849472045898437500e+02) (111, 1.45130645751953125000e+02) (112, 1.31893936157226562500e+02) (113, 1.31954330444335937500e+02) (114, 1.45079421997070312500e+02) (115, 1.92922306060791015625e+01) (110, 1.31930374145507812500e+02) (111, 1.45192077636718750000e+02) (112, 1.31852767944335937500e+02) (113, 1.31812118530273437500e+02) (114, 1.45018646240234375000e+02) (115, 1.91593036651611328125e+01) (110, 1.31886032104492187500e+02) (111, 1.45173065185546875000e+02) (112, 1.31950637817382812500e+02) (113, 1.31878387451171875000e+02) (114, 1.45009307861328125000e+02) (115, 1.92160816192626953125e+01) (116, 8.83960571289062500000e+01) (117, 8.84474792480468750000e+01) (118, 8.82594604492187500000e+01) (119, 8.83984527587890625000e+01) (120, 8.83275146484375000000e+01) (121, 2.10726375579833984375e+01) (116, 8.84039154052734375000e+01) (117, 8.83389587402343750000e+01) (118, 8.83160705566406250000e+01) (119, 8.83560638427734375000e+01) (120, 8.84321746826171875000e+01) (121, 2.11024608612060546875e+01) (116, 8.82664947509765625000e+01) (117, 8.84503173828125000000e+01) (118, 8.83830566406250000000e+01) (119, 8.83600769042968750000e+01) (120, 8.82786865234375000000e+01) (121, 2.09869060516357421875e+01) (116, 8.83741607666015625000e+01) (117, 8.83953857421875000000e+01) (118, 8.83039703369140625000e+01) (119, 8.82891693115234375000e+01) (120, 8.83157653808593750000e+01) (121, 2.10221080780029296875e+01) (116, 8.84103088378906250000e+01) (117, 8.83912963867187500000e+01) (118, 8.84509735107421875000e+01) (119, 8.83751220703125000000e+01) (120, 8.83267822265625000000e+01) (121, 2.09535655975341796875e+01) (122, 5.22154579162597656250e+01) (123, 5.21703453063964843750e+01) (124, 5.22550697326660156250e+01) (125, 5.21171684265136718750e+01) (126, 5.20891304016113281250e+01) (127, 4.63166465759277343750e+01) (122, 8.07342758178710937500e+01) (123, 8.06195297241210937500e+01) (124, 8.07753753662109375000e+01) (125, 8.07861251831054687500e+01) (126, 8.06714630126953125000e+01) (127, 5.63200454711914062500e+01) (122, 8.10430603027343750000e+01) (123, 8.10724487304687500000e+01) (124, 8.10975646972656250000e+01) (125, 8.10650100708007812500e+01) (126, 8.11938705444335937500e+01) (127, 5.66462783813476562500e+01) (122, 5.24733467102050781250e+01) (123, 5.24723930358886718750e+01) (124, 5.24578590393066406250e+01) (125, 5.23526954650878906250e+01) (126, 5.23854713439941406250e+01) (127, 4.65089149475097656250e+01) (122, 5.23355369567871093750e+01) (123, 5.23176155090332031250e+01) (124, 5.23066673278808593750e+01) (125, 5.23148002624511718750e+01) (126, 5.23888740539550781250e+01) (127, 4.64793815612792968750e+01) (128, 5.94162673950195312500e+01) (129, 8.16521911621093750000e+01) (130, 8.14939575195312500000e+01) (131, 5.95132598876953125000e+01) (132, 5.94187088012695312500e+01) (133, 5.94514999389648437500e+01) (128, -1.22699785232543945312e+01) (129, 7.93417663574218750000e+01) (130, 7.95015563964843750000e+01) (131, -1.22123575210571289062e+01) (132, -1.23029031753540039062e+01) (133, -1.22565698623657226562e+01) (128, -1.21545305252075195312e+01) (129, 7.94936599731445312500e+01) (130, 7.95096282958984375000e+01) (131, -1.21649980545043945312e+01) (132, -1.22994813919067382812e+01) (133, -1.21898698806762695312e+01) (128, 5.93377532958984375000e+01) (129, 8.16701812744140625000e+01) (130, 8.14978485107421875000e+01) (131, 5.93673858642578125000e+01) (132, 5.95030670166015625000e+01) (133, 5.94861145019531250000e+01) (128, -1.21360139846801757812e+01) (129, 7.94558410644531250000e+01) (130, 7.95043487548828125000e+01) (131, -1.22674188613891601562e+01) (132, -1.23147478103637695312e+01) (133, -1.21322679519653320312e+01) (134, 8.53199157714843750000e+01) (135, 3.14667480468750000000e+02) (136, 3.14720947265625000000e+02) (137, 8.52627868652343750000e+01) (138, 3.14767272949218750000e+02) (139, 3.04930744171142578125e+01) (134, 8.37161712646484375000e+01) (135, 3.13072509765625000000e+02) (136, 3.13102661132812500000e+02) (137, 8.36102447509765625000e+01) (138, 3.13188537597656250000e+02) (139, 4.14073905944824218750e+01) (134, 8.39559783935546875000e+01) (135, 3.13336608886718750000e+02) (136, 3.13276550292968750000e+02) (137, 8.39261932373046875000e+01) (138, 3.13289245605468750000e+02) (139, 4.15941963195800781250e+01) (134, 8.36912536621093750000e+01) (135, 3.13123107910156250000e+02) (136, 3.13035278320312500000e+02) (137, 8.37067413330078125000e+01) (138, 3.13089233398437500000e+02) (139, 4.14849510192871093750e+01) (134, 8.38218383789062500000e+01) (135, 3.13352355957031250000e+02) (136, 3.13409606933593750000e+02) (137, 8.39649353027343750000e+01) (138, 3.13273925781250000000e+02) (139, 4.15841178894042968750e+01) (140, 1.60110397338867187500e+02) (141, 1.57399627685546875000e+02) (142, 1.57461578369140625000e+02) (143, 1.57424911499023437500e+02) (144, 1.57475006103515625000e+02) (145, 5.19603919982910156250e+00) (140, 9.34183120727539062500e+01) (141, 9.08769760131835937500e+01) (142, 9.08712997436523437500e+01) (143, 9.07620010375976562500e+01) (144, 9.08233413696289062500e+01) (145, 4.67756152153015136719e-01) (140, 9.01596755981445312500e+01) (141, 8.75541229248046875000e+01) (142, 8.75622024536132812500e+01) (143, 8.75932998657226562500e+01) (144, 8.75778350830078125000e+01) (145, 4.21009272336959838867e-01) (140, 9.02297668457031250000e+01) (141, 8.75946655273437500000e+01) (142, 8.75049514770507812500e+01) (143, 8.75971527099609375000e+01) (144, 8.75681991577148437500e+01) (145, 3.32942962646484375000e-01) (140, 5.89727210998535156250e+01) (141, 5.63254356384277343750e+01) (142, 5.63144721984863281250e+01) (143, 5.62817268371582031250e+01) (144, 5.63383750915527343750e+01) (145, 2.63557225465774536133e-01) (146, 4.22456771135330200195e-01) (147, 4.01659488677978515625e-01) (148, 4.01238858699798583984e-01) (149, 4.60278421640396118164e-01) (150, 5.39019882678985595703e-01) (151, 4.58746463060379028320e-01) (146, 1.56403645873069763184e-01) (147, 2.39006012678146362305e-01) (148, 2.05536097288131713867e-01) (149, 2.28507906198501586914e-01) (150, 2.91373282670974731445e-01) (151, 1.16883091628551483154e-01) (146, 1.21863089501857757568e-01) (147, 1.47159695625305175781e-01) (148, 2.27514356374740600586e-01) (149, 1.95277169346809387207e-01) (150, 2.17143982648849487305e-01) (151, 3.10426324605941772461e-01) (146, 4.06230866909027099609e-01) (147, 4.91331219673156738281e-01) (148, 5.12818872928619384766e-01) (149, 3.56378346681594848633e-01) (150, 4.88913714885711669922e-01) (151, 4.13337022066116333008e-01) (146, 1.58164530992507934570e-01) (147, 2.32610344886779785156e-01) (148, 3.13552528619766235352e-01) (149, 3.07313024997711181641e-01) (150, 2.33604043722152709961e-01) (151, 1.42819464206695556641e-01) (152, 7.18266248703002929688e-01) (153, 7.77395904064178466797e-01) (154, 7.69119560718536376953e-01) (155, 6.68825030326843261719e-01) (156, 6.19271874427795410156e-01) (157, 7.78140604496002197266e-01) (152, 4.44703251123428344727e-01) (153, 4.82407271862030029297e-01) (154, 5.72856247425079345703e-01) (155, 3.82332861423492431641e-01) (156, 4.21441942453384399414e-01) (157, 5.29317617416381835938e-01) (152, 7.68418908119201660156e-01) (153, 6.93698763847351074219e-01) (154, 6.71502470970153808594e-01) (155, 8.17537605762481689453e-01) (156, 6.30252718925476074219e-01) (157, 7.32655644416809082031e-01) (152, 6.20074629783630371094e-01) (153, 6.70835614204406738281e-01) (154, 8.10242593288421630859e-01) (155, 6.22549057006835937500e-01) (156, 6.58357143402099609375e-01) (157, 6.83821439743041992188e-01) (152, 6.62106156349182128906e-01) (153, 6.94677829742431640625e-01) (154, 7.27304697036743164062e-01) (155, 6.86265230178833007812e-01) (156, 7.36753106117248535156e-01) (157, 6.86539292335510253906e-01) (158, 7.87010312080383300781e-01) (159, 6.91481351852416992188e-01) (160, 7.36621737480163574219e-01) (161, 8.10764014720916748047e-01) (162, 7.20113635063171386719e-01) (163, 7.59635984897613525391e-01) (158, 8.11137557029724121094e-01) (159, 7.98632144927978515625e-01) (160, 8.19574475288391113281e-01) (161, 7.97461867332458496094e-01) (162, 7.51094579696655273438e-01) (163, 8.55928122997283935547e-01) (158, 3.77194583415985107422e-01) (159, 1.02458381652832031250e+00) (160, 3.01788836717605590820e-01) (161, 3.51522803306579589844e-01) (162, 2.88602560758590698242e-01) (163, 3.16104590892791748047e-01) (158, 7.90174782276153564453e-01) (159, 6.76811754703521728516e-01) (160, 7.85226702690124511719e-01) (161, 7.14502334594726562500e-01) (162, 8.50050330162048339844e-01) (163, 8.05247306823730468750e-01) (158, 1.29094445705413818359e+00) (159, 1.22034716606140136719e+00) (160, 1.28922247886657714844e+00) (161, 1.27778708934783935547e+00) (162, 1.28364777565002441406e+00) (163, 5.17271101474761962891e-01) (164, 1.32188594341278076172e+00) (165, 1.44337832927703857422e+00) (166, 1.36481583118438720703e+00) (167, 1.36673176288604736328e+00) (168, 1.36761116981506347656e+00) (169, 1.34806489944458007812e+00) (164, 1.19278895854949951172e+00) (165, 1.14823579788208007812e+00) (166, 1.14508914947509765625e+00) (167, 1.06058669090270996094e+00) (168, 1.02472400665283203125e+00) (169, 1.11824882030487060547e+00) (164, 1.39651298522949218750e+00) (165, 1.29899215698242187500e+00) (166, 1.26803398132324218750e+00) (167, 1.35236787796020507812e+00) (168, 1.35252141952514648438e+00) (169, 1.33448135852813720703e+00) (164, 1.33478629589080810547e+00) (165, 1.45972609519958496094e+00) (166, 1.32322835922241210938e+00) (167, 1.40524029731750488281e+00) (168, 1.37939763069152832031e+00) (169, 1.44291877746582031250e+00) (164, 3.82799315452575683594e+00) (165, 3.84461998939514160156e+00) (166, 3.69139385223388671875e+00) (167, 3.82096862792968750000e+00) (168, 3.78307890892028808594e+00) (169, 1.63169836997985839844e+00) (170, 1.59873628616333007812e+00) (171, 1.67013800144195556641e+00) (172, 1.71836030483245849609e+00) (173, 1.59014415740966796875e+00) (174, 1.66180574893951416016e+00) (175, 1.67875123023986816406e+00) (170, 1.68048822879791259766e+00) (171, 1.67438888549804687500e+00) (172, 1.56341469287872314453e+00) (173, 1.62057173252105712891e+00) (174, 1.65845227241516113281e+00) (175, 1.71569883823394775391e+00) (170, 1.65945422649383544922e+00) (171, 1.75513255596160888672e+00) (172, 1.62117350101470947266e+00) (173, 1.57219529151916503906e+00) (174, 1.59549367427825927734e+00) (175, 1.57114052772521972656e+00) (170, 1.66786253452301025391e+00) (171, 1.67522799968719482422e+00) (172, 1.66511559486389160156e+00) (173, 1.70646607875823974609e+00) (174, 1.68448436260223388672e+00) (175, 1.63775098323822021484e+00) (170, 1.59040093421936035156e+00) (171, 1.57728302478790283203e+00) (172, 1.70451653003692626953e+00) (173, 1.71747827529907226562e+00) (174, 1.56616175174713134766e+00) (175, 1.59021174907684326172e+00) (176, 1.59762322902679443359e+00) (177, 1.56333100795745849609e+00) (178, 1.61408245563507080078e+00) (179, 1.59208452701568603516e+00) (180, 1.67427873611450195312e+00) (181, 1.71040594577789306641e+00) (176, 1.70246958732604980469e+00) (177, 1.71546375751495361328e+00) (178, 1.70894396305084228516e+00) (179, 1.73104166984558105469e+00) (180, 1.72717344760894775391e+00) (181, 1.71202445030212402344e+00) (176, 1.94327890872955322266e+00) (177, 1.95782506465911865234e+00) (178, 1.83457171916961669922e+00) (179, 1.91518616676330566406e+00) (180, 1.80177855491638183594e+00) (181, 1.96113634109497070312e+00) (176, 1.88763153553009033203e+00) (177, 1.89115536212921142578e+00) (178, 1.91741609573364257812e+00) (179, 1.88070976734161376953e+00) (180, 1.95776438713073730469e+00) (181, 1.81464862823486328125e+00) (176, 1.86848068237304687500e+00) (177, 1.82291650772094726562e+00) (178, 1.82632422447204589844e+00) (179, 1.90057265758514404297e+00) (180, 1.99274408817291259766e+00) (181, 1.91948449611663818359e+00) (182, 1.20788991451263427734e+00) (183, 1.22775614261627197266e+00) (184, 1.32052564620971679688e+00) (185, 1.30038940906524658203e+00) (186, 1.26705300807952880859e+00) (187, 1.18202197551727294922e+00) (182, 1.66461527347564697266e+00) (183, 1.69661903381347656250e+00) (184, 1.58592927455902099609e+00) (185, 1.62309145927429199219e+00) (186, 1.60692226886749267578e+00) (187, 1.65057349205017089844e+00) (182, 1.23189306259155273438e+00) (183, 1.12753117084503173828e+00) (184, 1.11796081066131591797e+00) (185, 1.26942121982574462891e+00) (186, 1.26328110694885253906e+00) (187, 1.26628971099853515625e+00) (182, 9.04475510120391845703e-01) (183, 8.60081076622009277344e-01) (184, 9.23474013805389404297e-01) (185, 7.68140852451324462891e-01) (186, 8.83925318717956542969e-01) (187, 8.72949838638305664062e-01) (182, 1.13552689552307128906e+00) (183, 1.10409045219421386719e+00) (184, 1.14782059192657470703e+00) (185, 1.12334108352661132812e+00) (186, 1.09638166427612304688e+00) (187, 1.15123963356018066406e+00) (188, 1.12113952636718750000e+00) (189, 1.14092278480529785156e+00) (190, 1.03564155101776123047e+00) (191, 1.05748403072357177734e+00) (192, 1.06293153762817382812e+00) (193, 1.04466927051544189453e+00) (188, 1.09495568275451660156e+00) (189, 1.17753994464874267578e+00) (190, 1.21419703960418701172e+00) (191, 1.10956954956054687500e+00) (192, 1.23650658130645751953e+00) (193, 1.26693713665008544922e+00) (188, 2.08056151866912841797e-01) (189, 3.44531714916229248047e-01) (190, 3.75585585832595825195e-01) (191, 3.10427218675613403320e-01) (192, 3.42339396476745605469e-01) (193, 3.27552437782287597656e-01) (188, 2.44753211736679077148e-02) (189, 2.08433419466018676758e-01) (190, 1.10316202044486999512e-01) (191, 1.38410881161689758301e-01) (192, 1.13158509135246276855e-01) (193, 1.09292380511760711670e-01) (188, 1.90373873710632324219e+00) (189, 1.80471706390380859375e+00) (190, 1.94902789592742919922e+00) (191, 1.98082125186920166016e+00) (192, 1.93202722072601318359e+00) (193, 1.84992206096649169922e+00) (194, -3.83420765399932861328e-01) (195, -3.06428760290145874023e-01) (196, -3.01540017127990722656e-01) (197, -3.36269289255142211914e-01) (198, -4.31305885314941406250e-01) (199, -3.10950815677642822266e-01) (194, 2.78169482946395874023e-01) (195, 1.77194669842720031738e-01) (196, 1.17163784801959991455e-01) (197, 2.20252498984336853027e-01) (198, 1.90994784235954284668e-01) (199, 2.55698859691619873047e-01) (194, -3.88546288013458251953e-01) (195, -3.08483719825744628906e-01) (196, -2.96249926090240478516e-01) (197, -2.83678412437438964844e-01) (198, -3.93580019474029541016e-01) (199, -3.09217274188995361328e-01) (194, -9.59546387195587158203e-01) (195, -1.14131355285644531250e+00) (196, -1.00250673294067382812e+00) (197, -1.07499039173126220703e+00) (198, -1.10808372497558593750e+00) (199, -1.10797691345214843750e+00) (194, -9.37597572803497314453e-01) (195, -8.39962065219879150391e-01) (196, -8.82641613483428955078e-01) (197, -7.97512233257293701172e-01) (198, -8.68522584438323974609e-01) (199, -8.99501383304595947266e-01) (200, 1.93489983677864074707e-01) (201, 3.13368588685989379883e-01) (202, 2.89385408163070678711e-01) (203, 1.50000000000000000000e+03) (204, 2.80739754438400268555e-01) (205, 2.96423941850662231445e-01) (200, 3.00480514764785766602e-01) (201, 2.79191970825195312500e-01) (202, 2.82200187444686889648e-01) (203, 1.50000000000000000000e+03) (204, 1.87772974371910095215e-01) (205, 2.27437689900398254395e-01) (200, 2.72797644138336181641e-01) (201, 2.12945118546485900879e-01) (202, 2.96108484268188476562e-01) (203, 1.50000000000000000000e+03) (204, 2.39515975117683410645e-01) (205, 2.72371470928192138672e-01) (200, -3.40019285678863525391e-01) (201, -3.14242541790008544922e-01) (202, -2.84872472286224365234e-01) (203, 1.50000000000000000000e+03) (204, -3.01507413387298583984e-01) (205, -2.45552599430084228516e-01) (200, -3.89221489429473876953e-01) (201, -2.55078732967376708984e-01) (202, -3.18737208843231201172e-01) (203, 1.50000000000000000000e+03) (204, -3.51801335811614990234e-01) (205, -3.35451900959014892578e-01) (206, -7.20970157999545335770e-04) (207, 1.10925428569316864014e-01) (208, 1.33279889822006225586e-01) (209, 2.27054068818688392639e-03) (210, -1.03694526478648185730e-02) (211, -5.31051680445671081543e-02) (206, 5.54673075675964355469e-01) (207, 5.40609002113342285156e-01) (208, 5.65505385398864746094e-01) (209, 3.99020612239837646484e-01) (210, 4.38378632068634033203e-01) (211, 5.28595149517059326172e-01) (206, 4.48426008224487304688e-01) (207, 3.95107269287109375000e-01) (208, 4.66529369354248046875e-01) (209, 4.57244455814361572266e-01) (210, 4.06790375709533691406e-01) (211, 4.25198733806610107422e-01) (206, -3.73794920742511749268e-02) (207, 4.54160803928971290588e-03) (208, -4.10219319164752960205e-02) (209, -1.37272197753190994263e-02) (210, 1.13851599395275115967e-01) (211, 1.13466463983058929443e-01) (206, 4.04075868427753448486e-02) (207, -2.80225593596696853638e-02) (208, 5.52797354757785797119e-02) (209, 1.28222331404685974121e-01) (210, 3.19831422530114650726e-03) (211, -1.75075121223926544189e-02) (212, 4.31586027145385742188e-01) (213, 5.64985156059265136719e-01) (214, 4.55735862255096435547e-01) (215, 4.51282382011413574219e-01) (216, 4.02525842189788818359e-01) (217, 5.51287591457366943359e-01) (212, 4.39908146858215332031e-01) (213, 4.35016751289367675781e-01) (214, 4.25519227981567382812e-01) (215, 4.00514960289001464844e-01) (216, 5.54504990577697753906e-01) (217, 5.15558958053588867188e-01) (212, 9.74599644541740417480e-02) (213, 1.91252361983060836792e-02) (214, 6.69139102101325988770e-02) (215, 3.16554792225360870361e-02) (216, 6.29508942365646362305e-02) (217, 5.55818267166614532471e-02) (212, 4.56686139106750488281e-01) (213, 4.22533810138702392578e-01) (214, 4.24791395664215087891e-01) (215, 5.67717134952545166016e-01) (216, 5.71654736995697021484e-01) (217, 5.51229715347290039062e-01) (212, 1.63591392338275909424e-02) (213, -2.48981490731239318848e-02) (214, -3.42576541006565093994e-02) (215, 7.33533874154090881348e-02) (216, 6.00029565393924713135e-02) (217, 1.11554540693759918213e-01) (218, 5.58336079120635986328e-01) (219, 5.04383921623229980469e-01) (220, 5.30444264411926269531e-01) (221, 5.26644527912139892578e-01) (222, 4.64004755020141601562e-01) (223, 4.25631821155548095703e-01) (218, 4.19703759253025054932e-02) (219, 3.79043705761432647705e-02) (220, 1.00543402135372161865e-01) (221, 4.24146503210067749023e-02) (222, 1.04865185916423797607e-01) (223, 7.88416638970375061035e-02) (218, 5.52826106548309326172e-01) (219, 4.98185276985168457031e-01) (220, 4.97815072536468505859e-01) (221, 4.76419746875762939453e-01) (222, 4.84489321708679199219e-01) (223, 5.10311365127563476562e-01) (218, 5.53431808948516845703e-01) (219, 4.78569865226745605469e-01) (220, 4.21875894069671630859e-01) (221, 5.67445278167724609375e-01) (222, 4.03092682361602783203e-01) (223, 4.77371692657470703125e-01) (218, 4.83802974224090576172e-01) (219, 5.74470043182373046875e-01) (220, 4.68283951282501220703e-01) (221, 5.46229481697082519531e-01) (222, 4.28274571895599365234e-01) (223, 5.09749591350555419922e-01) (224, 3.00754189491271972656e-01) (225, 2.65858054161071777344e-01) (226, 3.66708576679229736328e-01) (227, 3.60334694385528564453e-01) (228, 2.34264284372329711914e-01) (229, 1.94052070379257202148e-01) (224, 3.47413957118988037109e-01) (225, 2.76046991348266601562e-01) (226, 2.12438374757766723633e-01) (227, 3.66189897060394287109e-01) (228, 2.43048593401908874512e-01) (229, 2.31547385454177856445e-01) (224, 5.42554020881652832031e-01) (225, 4.55390036106109619141e-01) (226, 4.39243733882904052734e-01) (227, 4.68296766281127929688e-01) (228, 5.62345266342163085938e-01) (229, 4.86448824405670166016e-01) (224, -7.43099767714738845825e-03) (225, 1.33872002363204956055e-01) (226, -4.61010299623012542725e-02) (227, 2.19891741871833801270e-02) (228, 1.05911493301391601562e-03) (229, 2.88737080991268157959e-02) (224, -4.52466964721679687500e-01) (225, -4.31496143341064453125e-01) (226, -5.75864970684051513672e-01) (227, -5.29336333274841308594e-01) (228, -5.24514913558959960938e-01) (229, -4.91216212511062622070e-01) (230, 3.56609135866165161133e-01) (231, 4.12399142980575561523e-01) (232, 2.74919241666793823242e-01) (233, 2.50095665454864501953e-01) (234, 2.66060739755630493164e-01) (235, 3.65170031785964965820e-01) (230, 4.32483442127704620361e-02) (231, 3.08983046561479568481e-02) (232, 5.10929711163043975830e-02) (233, 7.51839280128479003906e-02) (234, 1.39278799295425415039e-01) (235, 1.40946120023727416992e-01) (230, 1.62982612848281860352e-01) (231, 1.30684018135070800781e-01) (232, 8.72513055801391601562e-02) (233, 1.56661003828048706055e-01) (234, 8.36991667747497558594e-02) (235, 5.53979687392711639404e-02) (230, 2.89663393050432205200e-02) (231, -1.98705513030290603638e-02) (232, -2.17246133834123611450e-02) (233, 1.71244647353887557983e-02) (234, 1.52906507253646850586e-01) (235, -1.81306321173906326294e-02) (230, 2.73326694965362548828e-01) (231, 2.84303128719329833984e-01) (232, 3.65345835685729980469e-01) (233, 2.50265538692474365234e-01) (234, 3.27026009559631347656e-01) (235, 4.08699601888656616211e-01) (236, 2.96630322933197021484e-01) (237, 3.48481893539428710938e-01) (238, 4.17527377605438232422e-01) (239, 2.65025556087493896484e-01) (240, 3.67205947637557983398e-01) (241, 3.13039690256118774414e-01) (236, 7.77709960937500000000e-01) (237, 7.07192778587341308594e-01) (238, 7.24600136280059814453e-01) (239, 6.89596116542816162109e-01) (240, 7.77223944664001464844e-01) (241, 7.38247692584991455078e-01) (236, 2.20384001731872558594e-01) (237, 3.67217183113098144531e-01) (238, 3.67705166339874267578e-01) (239, 3.69298696517944335938e-01) (240, 3.52541506290435791016e-01) (241, 3.14061760902404785156e-01) (236, 8.28470885753631591797e-01) (237, 8.45206558704376220703e-01) (238, 7.23180353641510009766e-01) (239, 8.27656805515289306641e-01) (240, 7.62964725494384765625e-01) (241, 6.83964252471923828125e-01) (236, 7.22230851650238037109e-01) (237, 6.69923067092895507812e-01) (238, 7.32766926288604736328e-01) (239, 7.49047100543975830078e-01) (240, 7.71012902259826660156e-01) (241, 7.49303340911865234375e-01) (242, 2.32817322015762329102e-01) (243, 3.34494590759277343750e-01) (244, 3.99466216564178466797e-01) (245, 3.76814603805541992188e-01) (246, 2.71831810474395751953e-01) (247, 2.26865142583847045898e-01) (242, 7.39448249340057373047e-01) (243, 8.42879593372344970703e-01) (244, 8.12736034393310546875e-01) (245, 7.90176391601562500000e-01) (246, 8.30303609371185302734e-01) (247, 8.48997652530670166016e-01) (242, 4.03711825609207153320e-01) (243, 2.67327934503555297852e-01) (244, 2.63156354427337646484e-01) (245, 3.51414680480957031250e-01) (246, 3.09035629034042358398e-01) (247, 2.44057253003120422363e-01) (242, 3.77413868904113769531e-01) (243, 2.77441024780273437500e-01) (244, 2.34025433659553527832e-01) (245, 3.72345894575119018555e-01) (246, 3.00071597099304199219e-01) (247, 3.85602712631225585938e-01) (242, 5.53530268371105194092e-02) (243, 7.44710415601730346680e-02) (244, 1.58589810132980346680e-01) (245, 1.00553527474403381348e-01) (246, 1.26348644495010375977e-01) (247, 4.70397360622882843018e-02) (248, 6.01700901985168457031e-01) (249, 5.62072932720184326172e-01) (250, 5.35337924957275390625e-01) (251, 5.99664628505706787109e-01) (252, 5.39183735847473144531e-01) (253, 4.36071753501892089844e-01) (248, 3.77725064754486083984e-01) (249, 3.73742401599884033203e-01) (250, 2.37645059823989868164e-01) (251, 2.73402690887451171875e-01) (252, 2.28442460298538208008e-01) (253, 4.06248509883880615234e-01) (248, 8.10762584209442138672e-01) (249, 8.21948349475860595703e-01) (250, 8.21390092372894287109e-01) (251, 8.39724004268646240234e-01) (252, 7.78324604034423828125e-01) (253, 8.37355315685272216797e-01) (248, 7.66235351562500000000e-01) (249, 8.53015005588531494141e-01) (250, 7.58592009544372558594e-01) (251, 7.91611373424530029297e-01) (252, 7.48110473155975341797e-01) (253, 8.28164637088775634766e-01) (248, 4.59518671035766601562e-01) (249, 4.54979240894317626953e-01) (250, 5.60509562492370605469e-01) (251, 4.59777176380157470703e-01) (252, 5.99691510200500488281e-01) (253, 5.90530455112457275391e-01) (254, 1.54772400856018066406e+00) (255, 1.66806626319885253906e+00) (256, 1.65826058387756347656e+00) (257, 1.65562629699707031250e+00) (258, 1.58108854293823242188e+00) (259, 1.62285923957824707031e+00) (254, 5.38491070270538330078e-01) (255, 5.94487190246582031250e-01) (256, 5.21257281303405761719e-01) (257, 5.46198964118957519531e-01) (258, 5.41901230812072753906e-01) (259, 5.09834825992584228516e-01) (254, 8.10969412326812744141e-01) (255, 6.98728382587432861328e-01) (256, 6.63164615631103515625e-01) (257, 7.43571758270263671875e-01) (258, 7.46010184288024902344e-01) (259, 7.28689491748809814453e-01) (254, 5.80002367496490478516e-01) (255, 4.75665688514709472656e-01) (256, 4.37301099300384521484e-01) (257, 4.43482398986816406250e-01) (258, 5.32448887825012207031e-01) (259, 4.44246351718902587891e-01) (254, 1.70052313804626464844e+00) (255, 1.56297397613525390625e+00) (256, 1.57462191581726074219e+00) (257, 1.74117016792297363281e+00) (258, 1.71720790863037109375e+00) (259, 1.58338284492492675781e+00) (260, 4.56397831439971923828e-01) (261, 6.02635681629180908203e-01) (262, 4.72971916198730468750e-01) (263, 5.63541293144226074219e-01) (264, 6.14019930362701416016e-01) (265, 6.08111321926116943359e-01) (260, 1.62994909286499023438e+00) (261, 1.62438249588012695312e+00) (262, 1.66725850105285644531e+00) (263, 1.68308663368225097656e+00) (264, 1.70596718788146972656e+00) (265, 1.65871238708496093750e+00) (260, 5.19693017005920410156e-01) (261, 4.56187665462493896484e-01) (262, 4.70535337924957275391e-01) (263, 6.11514747142791748047e-01) (264, 5.03607809543609619141e-01) (265, 5.16232192516326904297e-01) (260, 1.61742043495178222656e+00) (261, 1.65436339378356933594e+00) (262, 1.55386185646057128906e+00) (263, 1.62621212005615234375e+00) (264, 1.61865043640136718750e+00) (265, 1.72856450080871582031e+00) (260, 1.65363073348999023438e+00) (261, 1.64128637313842773438e+00) (262, 1.56807065010070800781e+00) (263, 1.63160395622253417969e+00) (264, 1.63570022583007812500e+00) (265, 1.68524432182312011719e+00) (266, -6.82255268096923828125e-01) (267, -6.65603637695312500000e-01) (268, -5.98996639251708984375e-01) (269, -5.35237312316894531250e-01) (270, -5.34586429595947265625e-01) (271, -5.93397378921508789062e-01) (266, -6.28335952758789062500e-01) (267, -6.41718387603759765625e-01) (268, -5.60330629348754882812e-01) (269, -6.76993846893310546875e-01) (270, -6.36515378952026367188e-01) (271, -5.14675855636596679688e-01) (266, -5.57595252990722656250e-01) (267, -7.03481197357177734375e-01) (268, -6.08007669448852539062e-01) (269, -5.85296869277954101562e-01) (270, -6.83542966842651367188e-01) (271, -7.06945180892944335938e-01) (266, 1.86656668782234191895e-01) (267, 2.39219844341278076172e-01) (268, 2.24380224943161010742e-01) (269, 2.20285862684249877930e-01) (270, 2.10705876350402832031e-01) (271, 2.09670916199684143066e-01) (266, -5.98941802978515625000e-01) (267, -6.14515066146850585938e-01) (268, -5.55653333663940429688e-01) (269, -6.63115262985229492188e-01) (270, -5.75675964355468750000e-01) (271, -5.85947275161743164062e-01) (272, 1.33182764053344726562e+00) (273, 1.36624383926391601562e+00) (274, 3.31939315795898437500e+00) (275, 5.94713427126407623291e-02) (276, 1.42480325698852539062e+00) (277, 1.61021724343299865723e-01) (272, 9.19839322566986083984e-01) (273, 8.85433137416839599609e-01) (274, 1.62035822868347167969e+00) (275, 3.09638679027557373047e-01) (276, 9.25282537937164306641e-01) (277, 4.51293230056762695312e-01) (272, 9.67678606510162353516e-01) (273, 9.18696224689483642578e-01) (274, 1.67354059219360351562e+00) (275, 3.45050394535064697266e-01) (276, 9.31260168552398681641e-01) (277, 3.15441429615020751953e-01) (272, 8.59095990657806396484e-01) (273, 9.72023189067840576172e-01) (274, 1.73902225494384765625e+00) (275, 2.92251735925674438477e-01) (276, 8.83373200893402099609e-01) (277, 4.80327963829040527344e-01) (272, 1.38373219966888427734e+00) (273, 1.32485318183898925781e+00) (274, 3.26758241653442382812e+00) (275, 7.60252103209495544434e-02) (276, 1.24539184570312500000e+00) (277, -8.21016635745763778687e-03) (278, 3.57376426458358764648e-01) (279, 3.88260573148727416992e-01) (280, 4.59361732006072998047e-01) (281, 4.57062005996704101562e-01) (282, 4.05556052923202514648e-01) (283, 3.43973249197006225586e-01) (278, 3.07408183813095092773e-01) (279, 3.16177070140838623047e-01) (280, 3.05206269025802612305e-01) (281, 3.06042969226837158203e-01) (282, 3.69469404220581054688e-01) (283, 4.35579657554626464844e-01) (278, 3.51586639881134033203e-01) (279, 4.74493324756622314453e-01) (280, 3.73649179935455322266e-01) (281, 4.85378503799438476562e-01) (282, 3.20550680160522460938e-01) (283, 4.17365670204162597656e-01) (278, -7.49635696411132812500e-01) (279, -7.78825640678405761719e-01) (280, -7.74223923683166503906e-01) (281, -8.32180142402648925781e-01) (282, -7.03755855560302734375e-01) (283, -8.75757813453674316406e-01) (278, -2.60933160781860351562e-01) (279, -4.22223657369613647461e-01) (280, -4.30643111467361450195e-01) (281, -3.36592882871627807617e-01) (282, -4.34697538614273071289e-01) (283, -2.79675543308258056641e-01) (284, -6.25442340970039367676e-02) (285, -5.92967011034488677979e-02) (286, -4.94248531758785247803e-02) (287, 7.06118419766426086426e-02) (288, 9.50065404176712036133e-02) (289, 9.63856726884841918945e-02) 
